solver_type L2R_L2LOSS_SVC_DUAL
nr_class 2
label 1 2
nr_feature 89600
bias -1
w
-0.001551427380896946 
0.0003050288733708612 
-0.002605974589604054 
-0.001203556182517037 
-0.0007600379843058271 
0 
-0.002605974589604054 
0.001203556182517037 
-0.001551427380896946 
-0.0003050288733708612 
0 
0 
0 
0 
0 
0 
0 
0 
0 
0 
0 
0 
0 
0 
0 
0 
0 
0 
0 
0 
0 
0 
0 
0 
0 
0 
0 
0 
0 
0 
0 
0 
0 
0 
0 
0 
0 
0 
0 
0 
-0.001408270805396753 
0.002551810921316209 
-0.003621702952338284 
-0.000603050016303402 
-0.001887116453293414 
0 
-0.003621702952338284 
0.000603050016303402 
-0.001408270805396753 
-0.002551810921316209 
0 
0 
0 
0 
0 
0 
0 
0 
0 
0 
0 
0 
0 
0 
0 
0 
0 
0 
0 
0 
0 
0 
0 
0 
0 
0 
0 
0 
0 
0 
0 
0 
0 
0 
0 
0 
0 
0 
0 
0 
0.009571232649254672 
0.003266372477531062 
0.01129750031692978 
0.006190932675094091 
0.01173596185884435 
0 
0.01129750031692978 
-0.006190932675094091 
0.009571232649254672 
-0.003266372477531062 
0 
0 
0 
0 
0 
0 
0 
0 
0 
0 
0 
0 
0 
0 
0 
0 
0 
0 
0 
0 
0 
0 
0 
0 
0 
0 
0 
0 
0 
0 
0 
0 
0 
0 
0 
0 
0 
0 
0 
0 
0 
0 
0 
0 
0 
0 
0 
0 
0 
0 
-0.009758567236860902 
-0.001701204876130755 
-0.01454421808039866 
-0.003063855819740893 
-0.01994427809361812 
0 
-0.01454421808039866 
0.003063855819740893 
-0.009758567236860902 
0.001701204876130755 
0 
0 
0 
0 
0 
0 
0 
0 
0 
0 
0 
0 
0 
0 
0 
0 
0 
0 
0 
0 
0 
0 
0 
0 
0 
0 
0 
0 
0 
0 
0 
0 
0 
0 
0 
0 
0 
0 
0 
0 
-0.000950405699661545 
0.003753084098380952 
-0.006424941019046855 
0.002878042534137721 
-0.009333368544558246 
0 
-0.006424941019046855 
-0.002878042534137721 
-0.000950405699661545 
-0.003753084098380952 
0 
0 
0 
0 
0 
0 
0 
0 
0 
0 
0 
0 
0 
0 
0 
0 
0 
0 
0 
0 
0 
0 
0 
0 
0 
0 
0 
0 
0 
0 
0 
0 
0 
0 
0 
0 
0 
0 
0 
0 
-0.0005779113419214171 
0.002302531733760479 
-0.003829452869912716 
0.0008432932110118062 
-0.003764297608472206 
0 
-0.003829452869912716 
-0.0008432932110118062 
-0.0005779113419214171 
-0.002302531733760479 
0 
0 
0 
0 
0 
0 
0 
0 
0 
0 
0 
0 
0 
0 
0 
0 
0 
0 
0 
0 
0 
0 
0 
0 
0 
0 
0 
0 
0 
0 
0 
0 
0 
0 
0 
0 
0 
0 
0 
0 
0.001877989801693502 
-0.003638290926823206 
0.006981319082537941 
-0.004990445153870189 
0.01389411745430703 
0 
0.006981319082537941 
0.004990445153870189 
0.001877989801693502 
0.003638290926823206 
0.001335899073709597 
-8.294814447193729e-05 
-7.139853979492561e-05 
0.00391350624958058 
-0.006350811795507434 
0 
-7.139853979492561e-05 
-0.00391350624958058 
0.001335899073709597 
8.294814447193729e-05 
0 
0 
0 
0 
0 
0 
0 
0 
0 
0 
0 
0 
0 
0 
0 
0 
0 
0 
0 
0 
0 
0 
0 
0 
0 
0 
0 
0 
0 
0 
0 
0 
0 
0 
0 
0 
0 
0 
0 
0 
0.0002288776200700177 
0.005564515873686177 
-0.00791777984012621 
0.004908916888748661 
-0.01091925028939422 
0 
-0.00791777984012621 
-0.004908916888748661 
0.0002288776200700177 
-0.005564515873686177 
0 
0 
0 
0 
0 
0 
0 
0 
0 
0 
0 
0 
0 
0 
0 
0 
0 
0 
0 
0 
0 
0 
0 
0 
0 
0 
0 
0 
0 
0 
0 
0 
0 
0 
0 
0 
0 
0 
0 
0 
0.003951744962767025 
0.003716097716051235 
0.002890997703691296 
0.005295462326389283 
0.001165792479365334 
0 
0.002890997703691296 
-0.005295462326389283 
0.003951744962767025 
-0.003716097716051235 
0 
0 
0 
0 
0 
0 
0 
0 
0 
0 
0 
0 
0 
0 
0 
0 
0 
0 
0 
0 
0 
0 
0 
0 
0 
0 
0 
0 
0 
0 
0 
0 
0 
0 
0 
0 
0 
0 
0 
0 
0 
0 
0 
0 
0 
0 
0 
0 
0 
0 
-0.006083769786500185 
0.005385439538518524 
-0.01573432756056391 
0.003067070222390944 
-0.02100938166183625 
0 
-0.01573432756056391 
-0.003067070222390944 
-0.006083769786500185 
-0.005385439538518524 
0 
0 
0 
0 
0 
0 
0 
0 
0 
0 
0 
0 
0 
0 
0 
0 
0 
0 
0 
0 
0 
0 
0 
0 
0 
0 
0 
0 
0 
0 
0 
0 
0 
0 
0 
0 
0 
0 
0 
0 
-0.004872329217646772 
0.00852861523408736 
-0.01710156383521708 
0.006622855680831552 
-0.02417767491489825 
0 
-0.01710156383521708 
-0.006622855680831552 
-0.004872329217646772 
-0.00852861523408736 
0 
0 
0 
0 
0 
0 
0 
0 
0 
0 
0 
0 
0 
0 
0 
0 
0 
0 
0 
0 
0 
0 
0 
0 
0 
0 
0 
0 
0 
0 
0 
0 
0 
0 
0 
0 
0 
0 
0 
0 
0.0008069311537400886 
0.001397481823541783 
-0.001693616980597244 
0.002339694872601702 
-0.003939073117894035 
0 
-0.001693616980597244 
-0.002339694872601702 
0.0008069311537400886 
-0.001397481823541783 
0 
0 
0 
0 
0 
0 
0 
0 
0 
0 
0 
0 
0 
0 
0 
0 
0 
0 
0 
0 
0 
0 
0 
0 
0 
0 
0 
0 
0 
0 
0 
0 
0 
0 
0 
0 
0 
0 
0 
0 
0.001540260599807986 
0.001835751218557697 
-0.002643480087665392 
0.001899193237975649 
-0.002665382201890926 
0 
-0.002643480087665392 
-0.001899193237975649 
0.001540260599807986 
-0.001835751218557697 
0.002184410774985529 
0.0004413622594727187 
-0.001183991568217115 
0.005446083743890977 
-0.008227963097137083 
0 
-0.001183991568217115 
-0.005446083743890977 
0.002184410774985529 
-0.0004413622594727187 
0 
0 
0 
0 
0 
0 
0 
0 
0 
0 
0 
0 
0 
0 
0 
0 
0 
0 
0 
0 
0 
0 
0 
0 
0 
0 
0 
0 
0 
0 
0 
0 
0 
0 
0 
0 
0 
0 
0 
0 
-0.00265027870520656 
0.006490936832264218 
-0.01176637484558233 
0.00433891741888963 
-0.01461345236409693 
0 
-0.01176637484558233 
-0.00433891741888963 
-0.00265027870520656 
-0.006490936832264218 
0 
0 
0 
0 
0 
0 
0 
0 
0 
0 
0 
0 
0 
0 
0 
0 
0 
0 
0 
0 
0 
0 
0 
0 
0 
0 
0 
0 
0 
0 
0 
0 
0 
0 
0 
0 
0 
0 
0 
0 
0.001163375528845219 
0.002960877981519708 
-0.0009616522371154954 
0.00382551336930041 
-0.003528792167948176 
0 
-0.0009616522371154954 
-0.00382551336930041 
0.001163375528845219 
-0.002960877981519708 
0 
0 
0 
0 
0 
0 
0 
0 
0 
0 
0 
0 
0 
0 
0 
0 
0 
0 
0 
0 
0 
0 
0 
0 
0 
0 
0 
0 
0 
0 
0 
0 
0 
0 
0 
0 
0 
0 
0 
0 
0 
0 
0 
0 
0 
0 
0 
0 
0 
0 
-0.005347513917008134 
0.003879821387411004 
-0.01116909978528142 
0.001193795193328041 
-0.014540927573739 
0 
-0.01116909978528142 
-0.001193795193328041 
-0.005347513917008134 
-0.003879821387411004 
0 
0 
0 
0 
0 
0 
0 
0 
0 
0 
0 
0 
0 
0 
0 
0 
0 
0 
0 
0 
0 
0 
0 
0 
0 
0 
0 
0 
0 
0 
0 
0 
0 
0 
0 
0 
0 
0 
0 
0 
-0.001249644814593906 
0.001044127994373925 
-0.003760198961614257 
0.001856132604416458 
-0.007290244349544642 
0 
-0.003760198961614257 
-0.001856132604416458 
-0.001249644814593906 
-0.001044127994373925 
0 
0 
0 
0 
0 
0 
0 
0 
0 
0 
0 
0 
0 
0 
0 
0 
0 
0 
0 
0 
0 
0 
0 
0 
0 
0 
0 
0 
0 
0 
0 
0 
0 
0 
0 
0 
0 
0 
0 
0 
-0.001238736776098435 
0.0006055021749410876 
-0.002229757666365521 
0.000280421613927364 
-0.003618904544427222 
0 
-0.002229757666365521 
-0.000280421613927364 
-0.001238736776098435 
-0.0006055021749410876 
0 
0 
0 
0 
0 
0 
0 
0 
0 
0 
0 
0 
0 
0 
0 
0 
0 
0 
0 
0 
0 
0 
0 
0 
0 
0 
0 
0 
0 
0 
0 
0 
0 
0 
0 
0 
0 
0 
0 
0 
0.003473229264892334 
0.003744568635064392 
-0.005595188187356732 
0.0056402050260919 
-0.008276791777641618 
0 
-0.005595188187356732 
-0.0056402050260919 
0.003473229264892334 
-0.003744568635064392 
-0.000846785713663309 
0.005746023946123079 
-0.009307324718544509 
0.00608563653258104 
-0.01507660432464651 
0 
-0.009307324718544509 
-0.00608563653258104 
-0.000846785713663309 
-0.005746023946123079 
0 
0 
0 
0 
0 
0 
0 
0 
0 
0 
0 
0 
0 
0 
0 
0 
0 
0 
0 
0 
0 
0 
0 
0 
0 
0 
0 
0 
0 
0 
0 
0 
0 
0 
0 
0 
0 
0 
0 
0 
-0.001367646557409454 
0.005643907474568758 
-0.008709259746826518 
0.005086808318402094 
-0.01356277019666111 
0 
-0.008709259746826518 
-0.005086808318402094 
-0.001367646557409454 
-0.005643907474568758 
0 
0 
0 
0 
0 
0 
0 
0 
0 
0 
0 
0 
0 
0 
0 
0 
0 
0 
0 
0 
0 
0 
0 
0 
0 
0 
0 
0 
0 
0 
0 
0 
0 
0 
0 
0 
0 
0 
0 
0 
0.007209683462827061 
0.003308612459388472 
0.008394706764238667 
0.005513046062556188 
0.008381668249431869 
0 
0.008394706764238667 
-0.005513046062556188 
0.007209683462827061 
-0.003308612459388472 
0 
0 
0 
0 
0 
0 
0 
0 
0 
0 
0 
0 
0 
0 
0 
0 
0 
0 
0 
0 
0 
0 
0 
0 
0 
0 
0 
0 
0 
0 
0 
0 
0 
0 
0 
0 
0 
0 
0 
0 
0 
0 
0 
0 
0 
0 
0 
0 
0 
0 
-0.003007196314651906 
-0.00320828142156705 
0.0003169201352596421 
-0.004551004703884527 
0.002092505657708815 
0 
0.0003169201352596421 
0.004551004703884527 
-0.003007196314651906 
0.00320828142156705 
0 
0 
0 
0 
0 
0 
0 
0 
0 
0 
0 
0 
0 
0 
0 
0 
0 
0 
0 
0 
0 
0 
0 
0 
0 
0 
0 
0 
0 
0 
0 
0 
0 
0 
0 
0 
0 
0 
0 
0 
0.0003391808090442043 
0.001230384632091019 
-0.001939883233750477 
0.001675316625331814 
-0.00314576986221115 
0 
-0.001939883233750477 
-0.001675316625331814 
0.0003391808090442043 
-0.001230384632091019 
0 
0 
0 
0 
0 
0 
0 
0 
0 
0 
0 
0 
0 
0 
0 
0 
0 
0 
0 
0 
0 
0 
0 
0 
0 
0 
0 
0 
0 
0 
0 
0 
0 
0 
0 
0 
0 
0 
0 
0 
-0.001719259641501833 
0.003514179555462989 
-0.006707127063980993 
0.001732732592769139 
-0.007076973671509453 
0 
-0.006707127063980993 
-0.001732732592769139 
-0.001719259641501833 
-0.003514179555462989 
0 
0 
0 
0 
0 
0 
0 
0 
0 
0 
0 
0 
0 
0 
0 
0 
0 
0 
0 
0 
0 
0 
0 
0 
0 
0 
0 
0 
0 
0 
0 
0 
0 
0 
0 
0 
0 
0 
0 
0 
-0.003979098521787693 
-0.0008009879266629733 
-0.005137352009871349 
-0.0006898351151240235 
-0.007998952017152691 
0 
-0.005137352009871349 
0.0006898351151240235 
-0.003979098521787693 
0.0008009879266629733 
-0.00344280407829231 
-0.0005569452135760779 
-0.0001894738556494021 
-0.003780203461425834 
0.0027526920118317 
0 
-0.0001894738556494021 
0.003780203461425834 
-0.00344280407829231 
0.0005569452135760779 
0 
0 
0 
0 
0 
0 
0 
0 
0 
0 
0 
0 
0 
0 
0 
0 
0 
0 
0 
0 
0 
0 
0 
0 
0 
0 
0 
0 
0 
0 
0 
0 
0 
0 
0 
0 
0 
0 
0 
0 
0.004081048396118565 
-0.003991861754880957 
0.007621584627868779 
-0.001066203661398195 
0.008052245046765704 
0 
0.007621584627868779 
0.001066203661398195 
0.004081048396118565 
0.003991861754880957 
0 
0 
0 
0 
0 
0 
0 
0 
0 
0 
0 
0 
0 
0 
0 
0 
0 
0 
0 
0 
0 
0 
0 
0 
0 
0 
0 
0 
0 
0 
0 
0 
0 
0 
0 
0 
0 
0 
0 
0 
-0.001685788854826108 
0.00384406279613431 
-0.005700970421063849 
0.002177682517145744 
-0.007138153790260964 
0 
-0.005700970421063849 
-0.002177682517145744 
-0.001685788854826108 
-0.00384406279613431 
0 
0 
0 
0 
0 
0 
0 
0 
0 
0 
0 
0 
0 
0 
0 
0 
0 
0 
0 
0 
0 
0 
0 
0 
0 
0 
0 
0 
0 
0 
0 
0 
0 
0 
0 
0 
0 
0 
0 
0 
0 
0 
0 
0 
0 
0 
0 
0 
0 
0 
-0.004286400093203708 
-0.0007527431677262175 
-0.008207691924345856 
-0.0008777048910424459 
-0.01250152273423381 
0 
-0.008207691924345856 
0.0008777048910424459 
-0.004286400093203708 
0.0007527431677262175 
0 
0 
0 
0 
0 
0 
0 
0 
0 
0 
0 
0 
0 
0 
0 
0 
0 
0 
0 
0 
0 
0 
0 
0 
0 
0 
0 
0 
0 
0 
0 
0 
0 
0 
0 
0 
0 
0 
0 
0 
-0.003578951016700823 
0.0008160328239770356 
-0.003197848183823001 
-0.001041724338586847 
-0.003537037730851164 
0 
-0.003197848183823001 
0.001041724338586847 
-0.003578951016700823 
-0.0008160328239770356 
0 
0 
0 
0 
0 
0 
0 
0 
0 
0 
0 
0 
0 
0 
0 
0 
0 
0 
0 
0 
0 
0 
0 
0 
0 
0 
0 
0 
0 
0 
0 
0 
0 
0 
0 
0 
0 
0 
0 
0 
-0.001940109062435522 
0.000741553436813939 
-0.003651899408448979 
0.0003256868614472963 
-0.005192974656784857 
0 
-0.003651899408448979 
-0.0003256868614472963 
-0.001940109062435522 
-0.000741553436813939 
0 
0 
0 
0 
0 
0 
0 
0 
0 
0 
0 
0 
0 
0 
0 
0 
0 
0 
0 
0 
0 
0 
0 
0 
0 
0 
0 
0 
0 
0 
0 
0 
0 
0 
0 
0 
0 
0 
0 
0 
0.0004752210593936347 
-0.00385971603218625 
0.008608309540905938 
-0.005258134912166565 
0.01317139178932096 
0 
0.008608309540905938 
0.005258134912166565 
0.0004752210593936347 
0.00385971603218625 
0.001442733388418411 
0.001842549270924924 
-0.002494916354486464 
0.004524904378303647 
-0.007076939216240079 
0 
-0.002494916354486464 
-0.004524904378303647 
0.001442733388418411 
-0.001842549270924924 
0 
0 
0 
0 
0 
0 
0 
0 
0 
0 
0 
0 
0 
0 
0 
0 
0 
0 
0 
0 
0 
0 
0 
0 
0 
0 
0 
0 
0 
0 
0 
0 
0 
0 
0 
0 
0 
0 
0 
0 
0.001737072729112611 
-0.0001643630207086187 
0.001007424064007361 
0.001744007320881368 
-0.001154028511643386 
0 
0.001007424064007361 
-0.001744007320881368 
0.001737072729112611 
0.0001643630207086187 
0 
0 
0 
0 
0 
0 
0 
0 
0 
0 
0 
0 
0 
0 
0 
0 
0 
0 
0 
0 
0 
0 
0 
0 
0 
0 
0 
0 
0 
0 
0 
0 
0 
0 
0 
0 
0 
0 
0 
0 
0.001448354343395127 
0.00322647572575171 
-0.002313967829706289 
0.00421909456607723 
-0.005448353454054502 
0 
-0.002313967829706289 
-0.00421909456607723 
0.001448354343395127 
-0.00322647572575171 
0 
0 
0 
0 
0 
0 
0 
0 
0 
0 
0 
0 
0 
0 
0 
0 
0 
0 
0 
0 
0 
0 
0 
0 
0 
0 
0 
0 
0 
0 
0 
0 
0 
0 
0 
0 
0 
0 
0 
0 
0 
0 
0 
0 
0 
0 
0 
0 
0 
0 
-0.003287252349610077 
-0.001832925760001105 
-0.004954399294585919 
-0.001218349451346609 
-0.008202486472335931 
0 
-0.004954399294585919 
0.001218349451346609 
-0.003287252349610077 
0.001832925760001105 
0 
0 
0 
0 
0 
0 
0 
0 
0 
0 
0 
0 
0 
0 
0 
0 
0 
0 
0 
0 
0 
0 
0 
0 
0 
0 
0 
0 
0 
0 
0 
0 
0 
0 
0 
0 
0 
0 
0 
0 
0.003232352528790772 
0.004863685435382159 
0.0004541152412548224 
0.005897303345750351 
-0.001878437017983761 
0 
0.0004541152412548224 
-0.005897303345750351 
0.003232352528790772 
-0.004863685435382159 
0 
0 
0 
0 
0 
0 
0 
0 
0 
0 
0 
0 
0 
0 
0 
0 
0 
0 
0 
0 
0 
0 
0 
0 
0 
0 
0 
0 
0 
0 
0 
0 
0 
0 
0 
0 
0 
0 
0 
0 
-0.001547865005881753 
3.204813925817477e-05 
-0.0008648462521712143 
-0.0005644659512698675 
-0.001581346951117239 
0 
-0.0008648462521712143 
0.0005644659512698675 
-0.001547865005881753 
-3.204813925817477e-05 
0 
0 
0 
0 
0 
0 
0 
0 
0 
0 
0 
0 
0 
0 
0 
0 
0 
0 
0 
0 
0 
0 
0 
0 
0 
0 
0 
0 
0 
0 
0 
0 
0 
0 
0 
0 
0 
0 
0 
0 
0.001118352612721405 
0.002963720431017249 
-0.004025793921228574 
0.002877566070241058 
-0.004597997886308496 
0 
-0.004025793921228574 
-0.002877566070241058 
0.001118352612721405 
-0.002963720431017249 
0.00118659692503337 
0.0007576293587505092 
-0.001188573316905886 
0.002694655247840914 
-0.003813216942283114 
0 
-0.001188573316905886 
-0.002694655247840914 
0.00118659692503337 
-0.0007576293587505092 
0 
0 
0 
0 
0 
0 
0 
0 
0 
0 
0 
0 
0 
0 
0 
0 
0 
0 
0 
0 
0 
0 
0 
0 
0 
0 
0 
0 
0 
0 
0 
0 
0 
0 
0 
0 
0 
0 
0 
0 
-0.005045229650213587 
0.006636919205758631 
-0.0126664307165168 
0.00306783291639276 
-0.0161483257946199 
0 
-0.0126664307165168 
-0.00306783291639276 
-0.005045229650213587 
-0.006636919205758631 
0 
0 
0 
0 
0 
0 
0 
0 
0 
0 
0 
0 
0 
0 
0 
0 
0 
0 
0 
0 
0 
0 
0 
0 
0 
0 
0 
0 
0 
0 
0 
0 
0 
0 
0 
0 
0 
0 
0 
0 
0.003610064992193524 
0.002785502619283304 
0.004023735524784689 
0.003951234982638501 
0.003157452579836311 
0 
0.004023735524784689 
-0.003951234982638501 
0.003610064992193524 
-0.002785502619283304 
0 
0 
0 
0 
0 
0 
0 
0 
0 
0 
0 
0 
0 
0 
0 
0 
0 
0 
0 
0 
0 
0 
0 
0 
0 
0 
0 
0 
0 
0 
0 
0 
0 
0 
0 
0 
0 
0 
0 
0 
0 
0 
0 
0 
0 
0 
0 
0 
0 
0 
0.0009336071842514673 
0.0007826139889237742 
-0.002181246061088683 
0.002091672855885923 
-0.005746840702057964 
0 
-0.002181246061088683 
-0.002091672855885923 
0.0009336071842514673 
-0.0007826139889237742 
0 
0 
0 
0 
0 
0 
0 
0 
0 
0 
0 
0 
0 
0 
0 
0 
0 
0 
0 
0 
0 
0 
0 
0 
0 
0 
0 
0 
0 
0 
0 
0 
0 
0 
0 
0 
0 
0 
0 
0 
0.002017992192535996 
0.002644936509394295 
0.001209427663672431 
0.003617513813213783 
-0.0001718063031073057 
0 
0.001209427663672431 
-0.003617513813213783 
0.002017992192535996 
-0.002644936509394295 
0 
0 
0 
0 
0 
0 
0 
0 
0 
0 
0 
0 
0 
0 
0 
0 
0 
0 
0 
0 
0 
0 
0 
0 
0 
0 
0 
0 
0 
0 
0 
0 
0 
0 
0 
0 
0 
0 
0 
0 
0.001363552063490128 
-0.002988304663994666 
0.006418018614111898 
-0.001703617208780198 
0.007059557897759856 
0 
0.006418018614111898 
0.001703617208780198 
0.001363552063490128 
0.002988304663994666 
0 
0 
0 
0 
0 
0 
0 
0 
0 
0 
0 
0 
0 
0 
0 
0 
0 
0 
0 
0 
0 
0 
0 
0 
0 
0 
0 
0 
0 
0 
0 
0 
0 
0 
0 
0 
0 
0 
0 
0 
0.00283354668851945 
0.00272454611743712 
-0.003560339443414542 
0.006126244194329057 
-0.009520455078499208 
0 
-0.003560339443414542 
-0.006126244194329057 
0.00283354668851945 
-0.00272454611743712 
-0.002830024718272899 
0.006660287165033495 
-0.01212412349520302 
0.005241346242756826 
-0.01703801302696026 
0 
-0.01212412349520302 
-0.005241346242756826 
-0.002830024718272899 
-0.006660287165033495 
0 
0 
0 
0 
0 
0 
0 
0 
0 
0 
0 
0 
0 
0 
0 
0 
0 
0 
0 
0 
0 
0 
0 
0 
0 
0 
0 
0 
0 
0 
0 
0 
0 
0 
0 
0 
0 
0 
0 
0 
0.0006883933828197148 
0.001952581309242527 
-0.003026001163039884 
0.003458905068201533 
-0.006357113069431103 
0 
-0.003026001163039884 
-0.003458905068201533 
0.0006883933828197148 
-0.001952581309242527 
0 
0 
0 
0 
0 
0 
0 
0 
0 
0 
0 
0 
0 
0 
0 
0 
0 
0 
0 
0 
0 
0 
0 
0 
0 
0 
0 
0 
0 
0 
0 
0 
0 
0 
0 
0 
0 
0 
0 
0 
-0.0001810432218774226 
-0.001089831984681771 
-0.001420402362344819 
-0.000181218652856694 
-0.002628166641474426 
0 
-0.001420402362344819 
0.000181218652856694 
-0.0001810432218774226 
0.001089831984681771 
0 
0 
0 
0 
0 
0 
0 
0 
0 
0 
0 
0 
0 
0 
0 
0 
0 
0 
0 
0 
0 
0 
0 
0 
0 
0 
0 
0 
0 
0 
0 
0 
0 
0 
0 
0 
0 
0 
0 
0 
0 
0 
0 
0 
0 
0 
0 
0 
0 
0 
-0.001282944806427605 
-0.000584446683491135 
-0.002067147331664976 
-0.0005761888518883486 
-0.003193703099998477 
0 
-0.002067147331664976 
0.0005761888518883486 
-0.001282944806427605 
0.000584446683491135 
0 
0 
0 
0 
0 
0 
0 
0 
0 
0 
0 
0 
0 
0 
0 
0 
0 
0 
0 
0 
0 
0 
0 
0 
0 
0 
0 
0 
0 
0 
0 
0 
0 
0 
0 
0 
0 
0 
0 
0 
0.001781470711936813 
-0.003710653663615012 
0.005893053983043966 
-0.002338365893478309 
0.007400669640801766 
0 
0.005893053983043966 
0.002338365893478309 
0.001781470711936813 
0.003710653663615012 
0 
0 
0 
0 
0 
0 
0 
0 
0 
0 
0 
0 
0 
0 
0 
0 
0 
0 
0 
0 
0 
0 
0 
0 
0 
0 
0 
0 
0 
0 
0 
0 
0 
0 
0 
0 
0 
0 
0 
0 
-0.001851208823694213 
0.003814388964264487 
-0.006362066210942131 
0.001849432567279963 
-0.007669929566305443 
0 
-0.006362066210942131 
-0.001849432567279963 
-0.001851208823694213 
-0.003814388964264487 
0 
0 
0 
0 
0 
0 
0 
0 
0 
0 
0 
0 
0 
0 
0 
0 
0 
0 
0 
0 
0 
0 
0 
0 
0 
0 
0 
0 
0 
0 
0 
0 
0 
0 
0 
0 
0 
0 
0 
0 
-0.005940940740476402 
-0.0004124194878367032 
-0.009930411351765396 
-0.0006670065938665966 
-0.01461800833246468 
0 
-0.009930411351765396 
0.0006670065938665966 
-0.005940940740476402 
0.0004124194878367032 
-0.001659471293748002 
-0.0006630293698743512 
-0.0005892805136336141 
-0.0009460941339683682 
-0.0006810938077840329 
0 
-0.0005892805136336141 
0.0009460941339683682 
-0.001659471293748002 
0.0006630293698743512 
0 
0 
0 
0 
0 
0 
0 
0 
0 
0 
0 
0 
0 
0 
0 
0 
0 
0 
0 
0 
0 
0 
0 
0 
0 
0 
0 
0 
0 
0 
0 
0 
0 
0 
0 
0 
0 
0 
0 
0 
-0.000835411106463161 
-0.001656365252199803 
0.001178452473497775 
-0.001665627532048781 
0.001665244294312754 
0 
0.001178452473497775 
0.001665627532048781 
-0.000835411106463161 
0.001656365252199803 
0 
0 
0 
0 
0 
0 
0 
0 
0 
0 
0 
0 
0 
0 
0 
0 
0 
0 
0 
0 
0 
0 
0 
0 
0 
0 
0 
0 
0 
0 
0 
0 
0 
0 
0 
0 
0 
0 
0 
0 
-0.005699026663898235 
-0.00252539154778179 
-0.006539004754451851 
-0.002061040458697691 
-0.0103691783545671 
0 
-0.006539004754451851 
0.002061040458697691 
-0.005699026663898235 
0.00252539154778179 
0 
0 
0 
0 
0 
0 
0 
0 
0 
0 
0 
0 
0 
0 
0 
0 
0 
0 
0 
0 
0 
0 
0 
0 
0 
0 
0 
0 
0 
0 
0 
0 
0 
0 
0 
0 
0 
0 
0 
0 
0 
0 
0 
0 
0 
0 
0 
0 
0 
0 
-0.01933862046997074 
-0.003760157936915701 
-0.028914783651044 
-0.007969392775809023 
-0.03741139136546201 
0 
-0.028914783651044 
0.007969392775809023 
-0.01933862046997074 
0.003760157936915701 
0 
0 
0 
0 
0 
0 
0 
0 
0 
0 
0 
0 
0 
0 
0 
0 
0 
0 
0 
0 
0 
0 
0 
0 
0 
0 
0 
0 
0 
0 
0 
0 
0 
0 
0 
0 
0 
0 
0 
0 
-0.004609496060339212 
0.003105778878757634 
-0.009131446170835323 
0.001030157215496253 
-0.01182522395225009 
0 
-0.009131446170835323 
-0.001030157215496253 
-0.004609496060339212 
-0.003105778878757634 
0 
0 
0 
0 
0 
0 
0 
0 
0 
0 
0 
0 
0 
0 
0 
0 
0 
0 
0 
0 
0 
0 
0 
0 
0 
0 
0 
0 
0 
0 
0 
0 
0 
0 
0 
0 
0 
0 
0 
0 
-0.004101730103014926 
0.003767537325302911 
-0.00735106016046216 
0.0006428127940776577 
-0.00817323905468041 
0 
-0.00735106016046216 
-0.0006428127940776577 
-0.004101730103014926 
-0.003767537325302911 
0 
0 
0 
0 
0 
0 
0 
0 
0 
0 
0 
0 
0 
0 
0 
0 
0 
0 
0 
0 
0 
0 
0 
0 
0 
0 
0 
0 
0 
0 
0 
0 
0 
0 
0 
0 
0 
0 
0 
0 
0.0006466935105289168 
-0.002615847676293943 
0.001705337740512835 
-0.0003200694940591179 
0.0007434682941230296 
0 
0.001705337740512835 
0.0003200694940591179 
0.0006466935105289168 
0.002615847676293943 
0.0007237703369199837 
0.0002065860204361161 
-0.0009477337398744248 
0.0002972915409761619 
0.000850540040315345 
0 
-0.0009477337398744248 
-0.0002972915409761619 
0.0007237703369199837 
-0.0002065860204361161 
0 
0 
0 
0 
0 
0 
0 
0 
0 
0 
0 
0 
0 
0 
0 
0 
0 
0 
0 
0 
0 
0 
0 
0 
0 
0 
0 
0 
0 
0 
0 
0 
0 
0 
0 
0 
0 
0 
0 
0 
-0.002346989800954414 
0.001885940884304833 
-0.005122998359797669 
0.0008901388737916982 
-0.006493267929551051 
0 
-0.005122998359797669 
-0.0008901388737916982 
-0.002346989800954414 
-0.001885940884304833 
0 
0 
0 
0 
0 
0 
0 
0 
0 
0 
0 
0 
0 
0 
0 
0 
0 
0 
0 
0 
0 
0 
0 
0 
0 
0 
0 
0 
0 
0 
0 
0 
0 
0 
0 
0 
0 
0 
0 
0 
0.01489433646209418 
0.005041503337702157 
0.01914699167863977 
0.00977604931425443 
0.02099917668291924 
0 
0.01914699167863977 
-0.00977604931425443 
0.01489433646209418 
-0.005041503337702157 
0 
0 
0 
0 
0 
0 
0 
0 
0 
0 
0 
0 
0 
0 
0 
0 
0 
0 
0 
0 
0 
0 
0 
0 
0 
0 
0 
0 
0 
0 
0 
0 
0 
0 
0 
0 
0 
0 
0 
0 
0 
0 
0 
0 
0 
0 
0 
0 
0 
0 
-0.005790766333167272 
-0.002653453401614937 
-0.004900037085592163 
-0.004224080432273495 
-0.005195978743604255 
0 
-0.004900037085592163 
0.004224080432273495 
-0.005790766333167272 
0.002653453401614937 
0 
0 
0 
0 
0 
0 
0 
0 
0 
0 
0 
0 
0 
0 
0 
0 
0 
0 
0 
0 
0 
0 
0 
0 
0 
0 
0 
0 
0 
0 
0 
0 
0 
0 
0 
0 
0 
0 
0 
0 
0.01435110714289408 
0.004328876830222818 
0.01896605044177943 
0.008571671911439956 
0.02108561566807985 
0 
0.01896605044177943 
-0.008571671911439956 
0.01435110714289408 
-0.004328876830222818 
0 
0 
0 
0 
0 
0 
0 
0 
0 
0 
0 
0 
0 
0 
0 
0 
0 
0 
0 
0 
0 
0 
0 
0 
0 
0 
0 
0 
0 
0 
0 
0 
0 
0 
0 
0 
0 
0 
0 
0 
-0.00118707030570169 
-0.001834488787343004 
0.003016149537980585 
-0.003344808928858182 
0.006170997113378259 
0 
0.003016149537980585 
0.003344808928858182 
-0.00118707030570169 
0.001834488787343004 
0 
0 
0 
0 
0 
0 
0 
0 
0 
0 
0 
0 
0 
0 
0 
0 
0 
0 
0 
0 
0 
0 
0 
0 
0 
0 
0 
0 
0 
0 
0 
0 
0 
0 
0 
0 
0 
0 
0 
0 
0.0006704027338240645 
0.00273216357555396 
-0.002840894426194383 
0.0006073409726859076 
-0.001799713480988521 
0 
-0.002840894426194383 
-0.0006073409726859076 
0.0006704027338240645 
-0.00273216357555396 
0.002824516798671335 
0.00102791918501391 
-0.002753115690734413 
0.004453577689608322 
-0.004603731946854588 
0 
-0.002753115690734413 
-0.004453577689608322 
0.002824516798671335 
-0.00102791918501391 
0 
0 
0 
0 
0 
0 
0 
0 
0 
0 
0 
0 
0 
0 
0 
0 
0 
0 
0 
0 
0 
0 
0 
0 
0 
0 
0 
0 
0 
0 
0 
0 
0 
0 
0 
0 
0 
0 
0 
0 
-0.000639698717852887 
0.002657878225774564 
-0.003760528274700708 
0.001673086469799566 
-0.004591366391182254 
0 
-0.003760528274700708 
-0.001673086469799566 
-0.000639698717852887 
-0.002657878225774564 
0 
0 
0 
0 
0 
0 
0 
0 
0 
0 
0 
0 
0 
0 
0 
0 
0 
0 
0 
0 
0 
0 
0 
0 
0 
0 
0 
0 
0 
0 
0 
0 
0 
0 
0 
0 
0 
0 
0 
0 
0.005462662596061717 
0.001516667327095444 
0.006433874065518502 
0.004181705159193538 
0.005402349395123966 
0 
0.006433874065518502 
-0.004181705159193538 
0.005462662596061717 
-0.001516667327095444 
0 
0 
0 
0 
0 
0 
0 
0 
0 
0 
0 
0 
0 
0 
0 
0 
0 
0 
0 
0 
0 
0 
0 
0 
0 
0 
0 
0 
0 
0 
0 
0 
0 
0 
0 
0 
0 
0 
0 
0 
0 
0 
0 
0 
0 
0 
0 
0 
0 
0 
0.0009926912259447895 
-0.00320800629895401 
0.002266924372103092 
-0.001720487705942911 
0.001563500848914051 
0 
0.002266924372103092 
0.001720487705942911 
0.0009926912259447895 
0.00320800629895401 
0 
0 
0 
0 
0 
0 
0 
0 
0 
0 
0 
0 
0 
0 
0 
0 
0 
0 
0 
0 
0 
0 
0 
0 
0 
0 
0 
0 
0 
0 
0 
0 
0 
0 
0 
0 
0 
0 
0 
0 
0.01498457359051999 
0.003501809576038889 
0.01882524981308555 
0.008544047578954496 
0.02026064470938174 
0 
0.01882524981308555 
-0.008544047578954496 
0.01498457359051999 
-0.003501809576038889 
0 
0 
0 
0 
0 
0 
0 
0 
0 
0 
0 
0 
0 
0 
0 
0 
0 
0 
0 
0 
0 
0 
0 
0 
0 
0 
0 
0 
0 
0 
0 
0 
0 
0 
0 
0 
0 
0 
0 
0 
-0.002128330951262922 
-0.002463517975314515 
0.0002265032258985935 
-0.00263096792845106 
0.0006786629826250976 
0 
0.0002265032258985935 
0.00263096792845106 
-0.002128330951262922 
0.002463517975314515 
0 
0 
0 
0 
0 
0 
0 
0 
0 
0 
0 
0 
0 
0 
0 
0 
0 
0 
0 
0 
0 
0 
0 
0 
0 
0 
0 
0 
0 
0 
0 
0 
0 
0 
0 
0 
0 
0 
0 
0 
0.002795393707048437 
0.003873453718174239 
-0.005292792131741309 
0.005954606914691292 
-0.009148564251779455 
0 
-0.005292792131741309 
-0.005954606914691292 
0.002795393707048437 
-0.003873453718174239 
-0.0005427421916771393 
0.005722610408037272 
-0.008976473515599485 
0.006006077084133328 
-0.0139315441543963 
0 
-0.008976473515599485 
-0.006006077084133328 
-0.0005427421916771393 
-0.005722610408037272 
0 
0 
0 
0 
0 
0 
0 
0 
0 
0 
0 
0 
0 
0 
0 
0 
0 
0 
0 
0 
0 
0 
0 
0 
0 
0 
0 
0 
0 
0 
0 
0 
0 
0 
0 
0 
0 
0 
0 
0 
-0.001459219623172131 
0.001625346233691229 
-0.004174898263128757 
0.001519573309953791 
-0.006494813104921431 
0 
-0.004174898263128757 
-0.001519573309953791 
-0.001459219623172131 
-0.001625346233691229 
0 
0 
0 
0 
0 
0 
0 
0 
0 
0 
0 
0 
0 
0 
0 
0 
0 
0 
0 
0 
0 
0 
0 
0 
0 
0 
0 
0 
0 
0 
0 
0 
0 
0 
0 
0 
0 
0 
0 
0 
-0.002196976756058935 
-0.001819978639726215 
-0.002750441524630385 
-0.001675298895702376 
-0.004306367979872646 
0 
-0.002750441524630385 
0.001675298895702376 
-0.002196976756058935 
0.001819978639726215 
0 
0 
0 
0 
0 
0 
0 
0 
0 
0 
0 
0 
0 
0 
0 
0 
0 
0 
0 
0 
0 
0 
0 
0 
0 
0 
0 
0 
0 
0 
0 
0 
0 
0 
0 
0 
0 
0 
0 
0 
0 
0 
0 
0 
0 
0 
0 
0 
0 
0 
-0.003802923051065204 
-0.002916207929743319 
-0.003538661824091845 
-0.003631478956532304 
-0.005076520534820627 
0 
-0.003538661824091845 
0.003631478956532304 
-0.003802923051065204 
0.002916207929743319 
0 
0 
0 
0 
0 
0 
0 
0 
0 
0 
0 
0 
0 
0 
0 
0 
0 
0 
0 
0 
0 
0 
0 
0 
0 
0 
0 
0 
0 
0 
0 
0 
0 
0 
0 
0 
0 
0 
0 
0 
0.0009792036996605269 
-0.003906175646298048 
0.002724649477579741 
-0.001271849260532718 
0.00139772631770211 
0 
0.002724649477579741 
0.001271849260532718 
0.0009792036996605269 
0.003906175646298048 
0 
0 
0 
0 
0 
0 
0 
0 
0 
0 
0 
0 
0 
0 
0 
0 
0 
0 
0 
0 
0 
0 
0 
0 
0 
0 
0 
0 
0 
0 
0 
0 
0 
0 
0 
0 
0 
0 
0 
0 
-0.001059338036506918 
0.004321263986461356 
-0.007574355026084538 
0.003504067214126071 
-0.01056849389136129 
0 
-0.007574355026084538 
-0.003504067214126071 
-0.001059338036506918 
-0.004321263986461356 
0 
0 
0 
0 
0 
0 
0 
0 
0 
0 
0 
0 
0 
0 
0 
0 
0 
0 
0 
0 
0 
0 
0 
0 
0 
0 
0 
0 
0 
0 
0 
0 
0 
0 
0 
0 
0 
0 
0 
0 
-0.008580243246548465 
0.001680657878201232 
-0.01493812978564372 
-0.000954509737979623 
-0.01938343665701652 
0 
-0.01493812978564372 
0.000954509737979623 
-0.008580243246548465 
-0.001680657878201232 
-0.001332005191707028 
-0.003600283694551728 
0.004126705102274861 
-0.004849499159732793 
0.009596757471955659 
0 
0.004126705102274861 
0.004849499159732793 
-0.001332005191707028 
0.003600283694551728 
0 
0 
0 
0 
0 
0 
0 
0 
0 
0 
0 
0 
0 
0 
0 
0 
0 
0 
0 
0 
0 
0 
0 
0 
0 
0 
0 
0 
0 
0 
0 
0 
0 
0 
0 
0 
0 
0 
0 
0 
0.0001190741450805283 
0.002732183637634652 
-0.004589712711946177 
0.003916912847536656 
-0.008258420288804039 
0 
-0.004589712711946177 
-0.003916912847536656 
0.0001190741450805283 
-0.002732183637634652 
0 
0 
0 
0 
0 
0 
0 
0 
0 
0 
0 
0 
0 
0 
0 
0 
0 
0 
0 
0 
0 
0 
0 
0 
0 
0 
0 
0 
0 
0 
0 
0 
0 
0 
0 
0 
0 
0 
0 
0 
-0.0009393547437738953 
0.004490965974577489 
-0.00950427414141458 
0.005332531688280122 
-0.01491512050982031 
0 
-0.00950427414141458 
-0.005332531688280122 
-0.0009393547437738953 
-0.004490965974577489 
0 
0 
0 
0 
0 
0 
0 
0 
0 
0 
0 
0 
0 
0 
0 
0 
0 
0 
0 
0 
0 
0 
0 
0 
0 
0 
0 
0 
0 
0 
0 
0 
0 
0 
0 
0 
0 
0 
0 
0 
0 
0 
0 
0 
0 
0 
0 
0 
0 
0 
-0.01202076647370444 
-0.0002457646710059291 
-0.01754306677715617 
-0.002987798013647257 
-0.02270814831321443 
0 
-0.01754306677715617 
0.002987798013647257 
-0.01202076647370444 
0.0002457646710059291 
0 
0 
0 
0 
0 
0 
0 
0 
0 
0 
0 
0 
0 
0 
0 
0 
0 
0 
0 
0 
0 
0 
0 
0 
0 
0 
0 
0 
0 
0 
0 
0 
0 
0 
0 
0 
0 
0 
0 
0 
0.008512852805002998 
0.002911403351799533 
0.01046443688567273 
0.005399021871763586 
0.01123574674761158 
0 
0.01046443688567273 
-0.005399021871763586 
0.008512852805002998 
-0.002911403351799533 
0 
0 
0 
0 
0 
0 
0 
0 
0 
0 
0 
0 
0 
0 
0 
0 
0 
0 
0 
0 
0 
0 
0 
0 
0 
0 
0 
0 
0 
0 
0 
0 
0 
0 
0 
0 
0 
0 
0 
0 
-0.001513721458466526 
0.0004206786901841392 
-0.001287072744699155 
-0.0009432152587544344 
-0.000257553713630698 
0 
-0.001287072744699155 
0.0009432152587544344 
-0.001513721458466526 
-0.0004206786901841392 
0 
0 
0 
0 
0 
0 
0 
0 
0 
0 
0 
0 
0 
0 
0 
0 
0 
0 
0 
0 
0 
0 
0 
0 
0 
0 
0 
0 
0 
0 
0 
0 
0 
0 
0 
0 
0 
0 
0 
0 
0.004066916521467194 
-0.004962267846454995 
0.01065756904267632 
-0.003242658273939851 
0.01412190671837782 
0 
0.01065756904267632 
0.003242658273939851 
0.004066916521467194 
0.004962267846454995 
0.0008811831393317473 
-3.500598942007797e-05 
-0.000654847295168154 
0.001819187029434998 
-0.001877888759301105 
0 
-0.000654847295168154 
-0.001819187029434998 
0.0008811831393317473 
3.500598942007797e-05 
0 
0 
0 
0 
0 
0 
0 
0 
0 
0 
0 
0 
0 
0 
0 
0 
0 
0 
0 
0 
0 
0 
0 
0 
0 
0 
0 
0 
0 
0 
0 
0 
0 
0 
0 
0 
0 
0 
0 
0 
0.0005720705087164211 
0.004824851656957924 
-0.007223308868158371 
0.00572641366678953 
-0.01201596318231808 
0 
-0.007223308868158371 
-0.00572641366678953 
0.0005720705087164211 
-0.004824851656957924 
0 
0 
0 
0 
0 
0 
0 
0 
0 
0 
0 
0 
0 
0 
0 
0 
0 
0 
0 
0 
0 
0 
0 
0 
0 
0 
0 
0 
0 
0 
0 
0 
0 
0 
0 
0 
0 
0 
0 
0 
0.001555425465219289 
0.003804909014055557 
-0.004813521045469759 
0.005518746459387444 
-0.009470178747784979 
0 
-0.004813521045469759 
-0.005518746459387444 
0.001555425465219289 
-0.003804909014055557 
0 
0 
0 
0 
0 
0 
0 
0 
0 
0 
0 
0 
0 
0 
0 
0 
0 
0 
0 
0 
0 
0 
0 
0 
0 
0 
0 
0 
0 
0 
0 
0 
0 
0 
0 
0 
0 
0 
0 
0 
0 
0 
0 
0 
0 
0 
0 
0 
0 
0 
-0.00694187427911723 
0.005155201416324482 
-0.01607321941865046 
0.002579475671816362 
-0.02120815315540123 
0 
-0.01607321941865046 
-0.002579475671816362 
-0.00694187427911723 
-0.005155201416324482 
0 
0 
0 
0 
0 
0 
0 
0 
0 
0 
0 
0 
0 
0 
0 
0 
0 
0 
0 
0 
0 
0 
0 
0 
0 
0 
0 
0 
0 
0 
0 
0 
0 
0 
0 
0 
0 
0 
0 
0 
0.001919862803450276 
0.002884365901472874 
1.571502748980734e-05 
0.003984429300326231 
-0.002440689604105671 
0 
1.571502748980734e-05 
-0.003984429300326231 
0.001919862803450276 
-0.002884365901472874 
0 
0 
0 
0 
0 
0 
0 
0 
0 
0 
0 
0 
0 
0 
0 
0 
0 
0 
0 
0 
0 
0 
0 
0 
0 
0 
0 
0 
0 
0 
0 
0 
0 
0 
0 
0 
0 
0 
0 
0 
-0.001724634147262298 
0.003076753613206365 
-0.005997334456103557 
0.002002080996569349 
-0.007824686023504307 
0 
-0.005997334456103557 
-0.002002080996569349 
-0.001724634147262298 
-0.003076753613206365 
0 
0 
0 
0 
0 
0 
0 
0 
0 
0 
0 
0 
0 
0 
0 
0 
0 
0 
0 
0 
0 
0 
0 
0 
0 
0 
0 
0 
0 
0 
0 
0 
0 
0 
0 
0 
0 
0 
0 
0 
0.002691535098280857 
0.00153245710210661 
-0.002512691625480298 
0.004493796322788035 
-0.005825868955463392 
0 
-0.002512691625480298 
-0.004493796322788035 
0.002691535098280857 
-0.00153245710210661 
0.002677698879908967 
8.821577016763128e-05 
-0.00146201430318424 
0.004305909424931333 
-0.004841534447517858 
0 
-0.00146201430318424 
-0.004305909424931333 
0.002677698879908967 
-8.821577016763128e-05 
0 
0 
0 
0 
0 
0 
0 
0 
0 
0 
0 
0 
0 
0 
0 
0 
0 
0 
0 
0 
0 
0 
0 
0 
0 
0 
0 
0 
0 
0 
0 
0 
0 
0 
0 
0 
0 
0 
0 
0 
-0.002605099722728528 
0.003658659380780447 
-0.006774939474420144 
0.001913070328655828 
-0.008615047479718601 
0 
-0.006774939474420144 
-0.001913070328655828 
-0.002605099722728528 
-0.003658659380780447 
0 
0 
0 
0 
0 
0 
0 
0 
0 
0 
0 
0 
0 
0 
0 
0 
0 
0 
0 
0 
0 
0 
0 
0 
0 
0 
0 
0 
0 
0 
0 
0 
0 
0 
0 
0 
0 
0 
0 
0 
0.0009090824018749134 
0.003926144917401208 
-0.004987094772266168 
0.0043339983632604 
-0.008439120108028789 
0 
-0.004987094772266168 
-0.0043339983632604 
0.0009090824018749134 
-0.003926144917401208 
0 
0 
0 
0 
0 
0 
0 
0 
0 
0 
0 
0 
0 
0 
0 
0 
0 
0 
0 
0 
0 
0 
0 
0 
0 
0 
0 
0 
0 
0 
0 
0 
0 
0 
0 
0 
0 
0 
0 
0 
0 
0 
0 
0 
0 
0 
0 
0 
0 
0 
-0.009080902216959839 
0.004174569701794638 
-0.01405865241129008 
-0.0004614550285619928 
-0.01627167134003937 
0 
-0.01405865241129008 
0.0004614550285619928 
-0.009080902216959839 
-0.004174569701794638 
0 
0 
0 
0 
0 
0 
0 
0 
0 
0 
0 
0 
0 
0 
0 
0 
0 
0 
0 
0 
0 
0 
0 
0 
0 
0 
0 
0 
0 
0 
0 
0 
0 
0 
0 
0 
0 
0 
0 
0 
-0.005247202287994425 
0.001382060833223633 
-0.01064275235424673 
0.0004344474201352594 
-0.0155426803695382 
0 
-0.01064275235424673 
-0.0004344474201352594 
-0.005247202287994425 
-0.001382060833223633 
0 
0 
0 
0 
0 
0 
0 
0 
0 
0 
0 
0 
0 
0 
0 
0 
0 
0 
0 
0 
0 
0 
0 
0 
0 
0 
0 
0 
0 
0 
0 
0 
0 
0 
0 
0 
0 
0 
0 
0 
-0.00158959943167622 
0.003482026901385825 
-0.005264863537158783 
0.001848217912979077 
-0.006691437486611784 
0 
-0.005264863537158783 
-0.001848217912979077 
-0.00158959943167622 
-0.003482026901385825 
0 
0 
0 
0 
0 
0 
0 
0 
0 
0 
0 
0 
0 
0 
0 
0 
0 
0 
0 
0 
0 
0 
0 
0 
0 
0 
0 
0 
0 
0 
0 
0 
0 
0 
0 
0 
0 
0 
0 
0 
0.001958472364410403 
0.002416027007804035 
-0.004015676371242282 
0.003620218984938701 
-0.005337604699043159 
0 
-0.004015676371242282 
-0.003620218984938701 
0.001958472364410403 
-0.002416027007804035 
0.002259119098998861 
0.003613550553940368 
-0.005728442165138214 
0.006552638051750223 
-0.01041399001325447 
0 
-0.005728442165138214 
-0.006552638051750223 
0.002259119098998861 
-0.003613550553940368 
0 
0 
0 
0 
0 
0 
0 
0 
0 
0 
0 
0 
0 
0 
0 
0 
0 
0 
0 
0 
0 
0 
0 
0 
0 
0 
0 
0 
0 
0 
0 
0 
0 
0 
0 
0 
0 
0 
0 
0 
-0.0009877507905818458 
0.002786403650788799 
-0.004753638959350606 
0.001554012624329466 
-0.005124025282484375 
0 
-0.004753638959350606 
-0.001554012624329466 
-0.0009877507905818458 
-0.002786403650788799 
0 
0 
0 
0 
0 
0 
0 
0 
0 
0 
0 
0 
0 
0 
0 
0 
0 
0 
0 
0 
0 
0 
0 
0 
0 
0 
0 
0 
0 
0 
0 
0 
0 
0 
0 
0 
0 
0 
0 
0 
-0.00029464463385945 
0.00247460264602986 
-0.006635885395057121 
0.004297547088007282 
-0.01152155558487389 
0 
-0.006635885395057121 
-0.004297547088007282 
-0.00029464463385945 
-0.00247460264602986 
0 
0 
0 
0 
0 
0 
0 
0 
0 
0 
0 
0 
0 
0 
0 
0 
0 
0 
0 
0 
0 
0 
0 
0 
0 
0 
0 
0 
0 
0 
0 
0 
0 
0 
0 
0 
0 
0 
0 
0 
0 
0 
0 
0 
0 
0 
0 
0 
0 
0 
0.005463091016254543 
-0.001296772790225239 
0.01239802613395796 
-0.0005711837940042342 
0.0169389572324602 
0 
0.01239802613395796 
0.0005711837940042342 
0.005463091016254543 
0.001296772790225239 
0 
0 
0 
0 
0 
0 
0 
0 
0 
0 
0 
0 
0 
0 
0 
0 
0 
0 
0 
0 
0 
0 
0 
0 
0 
0 
0 
0 
0 
0 
0 
0 
0 
0 
0 
0 
0 
0 
0 
0 
0.005533037702980732 
0.003357683784807643 
0.005529543076496343 
0.004949271954894549 
0.005132036778020326 
0 
0.005529543076496343 
-0.004949271954894549 
0.005533037702980732 
-0.003357683784807643 
0 
0 
0 
0 
0 
0 
0 
0 
0 
0 
0 
0 
0 
0 
0 
0 
0 
0 
0 
0 
0 
0 
0 
0 
0 
0 
0 
0 
0 
0 
0 
0 
0 
0 
0 
0 
0 
0 
0 
0 
-0.001576830993446692 
0.00497720583653975 
-0.008773907180836185 
0.004684996920233505 
-0.01374508664136077 
0 
-0.008773907180836185 
-0.004684996920233505 
-0.001576830993446692 
-0.00497720583653975 
0 
0 
0 
0 
0 
0 
0 
0 
0 
0 
0 
0 
0 
0 
0 
0 
0 
0 
0 
0 
0 
0 
0 
0 
0 
0 
0 
0 
0 
0 
0 
0 
0 
0 
0 
0 
0 
0 
0 
0 
-0.002743988312463896 
0.002608567475116417 
-0.006713574597844632 
0.001186844660699171 
-0.009328110794580402 
0 
-0.006713574597844632 
-0.001186844660699171 
-0.002743988312463896 
-0.002608567475116417 
-0.0004444453036269553 
0 
-0.0009552803792644772 
0 
-0.00151320109011674 
0 
-0.0009552803792644772 
0 
-0.0004444453036269553 
0 
-0.0004444453036269554 
0 
-0.0009552803792644772 
0 
-0.00151320109011674 
0 
-0.0009552803792644772 
0 
-0.0004444453036269554 
0 
-0.0004444453036269553 
0 
-0.0009552803792644772 
0 
-0.00151320109011674 
0 
-0.0009552803792644772 
0 
-0.0004444453036269553 
0 
-0.0004444453036269553 
0 
-0.0009552803792644772 
0 
-0.00151320109011674 
0 
-0.0009552803792644772 
0 
-0.0004444453036269553 
0 
-0.0004444453036269553 
0 
-0.0009552803792644772 
0 
-0.00151320109011674 
0 
-0.0009552803792644772 
0 
-0.0004444453036269553 
0 
-0.0004444453036269553 
0 
-0.0009552803792644772 
0 
-0.00151320109011674 
0 
-0.0009552803792644772 
0 
-0.0004444453036269553 
0 
-0.0004444453036269555 
0 
-0.0009552803792644772 
0 
-0.00151320109011674 
0 
-0.0009552803792644772 
0 
-0.0004444453036269555 
0 
-0.0004444453036269555 
0 
-0.0009552803792644772 
0 
-0.00151320109011674 
0 
-0.0009552803792644772 
0 
-0.0004444453036269555 
0 
-0.0004444453036269555 
0 
-0.0009552803792644772 
0 
-0.00151320109011674 
0 
-0.0009552803792644772 
0 
-0.0004444453036269555 
0 
-0.0007053041026017413 
0 
-0.001515964203315568 
0 
-0.002401345965884191 
0 
-0.001515964203315568 
0 
-0.0007053041026017413 
0 
-0.0007053041026017413 
0 
-0.001515964203315568 
0 
-0.002401345965884191 
0 
-0.001515964203315568 
0 
-0.0007053041026017413 
0 
-0.0007053041026017413 
0 
-0.001515964203315568 
0 
-0.002401345965884191 
0 
-0.001515964203315568 
0 
-0.0007053041026017413 
0 
-0.0003108031850122885 
0 
-0.0006680331236087334 
0 
-0.001058190320685901 
0 
-0.0006680331236087334 
0 
-0.0003108031850122885 
0 
-0.0003108031850122885 
0 
-0.0006680331236087334 
0 
-0.001058190320685901 
0 
-0.0006680331236087334 
0 
-0.0003108031850122885 
0 
-0.0003108031850122885 
0 
-0.0006680331236087334 
0 
-0.001058190320685901 
0 
-0.0006680331236087334 
0 
-0.0003108031850122885 
0 
-0.0002608587989747854 
0 
-0.0005606838240510909 
0 
-0.0008881448757674509 
0 
-0.0005606838240510909 
0 
-0.0002608587989747854 
0 
-0.0002608587989747854 
0 
-0.0005606838240510909 
0 
-0.0008881448757674509 
0 
-0.0005606838240510909 
0 
-0.0002608587989747854 
0 
-0.0002608587989747854 
0 
-0.0005606838240510909 
0 
-0.0008881448757674517 
0 
-0.0005606838240510909 
0 
-0.0002608587989747854 
0 
-0.0002608587989747854 
0 
-0.000560683824051091 
0 
-0.0008881448757674515 
0 
-0.000560683824051091 
0 
-0.0002608587989747854 
0 
-0.0002608587989747854 
0 
-0.000560683824051091 
0 
-0.0008881448757674515 
0 
-0.000560683824051091 
0 
-0.0002608587989747854 
0 
-0.0002608587989747854 
0 
-0.000560683824051091 
0 
-0.0008881448757674515 
0 
-0.000560683824051091 
0 
-0.0002608587989747854 
0 
0.0003237811240974162 
0 
0.000695927603469673 
0 
0.001102376256302326 
0 
0.000695927603469673 
0 
0.0003237811240974162 
0 
0.0003237811240974162 
0 
0.000695927603469673 
0 
0.001102376256302326 
0 
0.000695927603469673 
0 
0.0003237811240974162 
0 
0.0003237811240974162 
0 
0.000695927603469673 
0 
0.001102376256302326 
0 
0.000695927603469673 
0 
0.0003237811240974162 
0 
-0.0004444453036269555 
0 
-0.0009552803792644772 
0 
-0.001513201090116739 
0 
-0.0009552803792644772 
0 
-0.0004444453036269555 
0 
-0.0004444453036269555 
0 
-0.0009552803792644772 
0 
-0.001513201090116739 
0 
-0.0009552803792644772 
0 
-0.0004444453036269555 
0 
-0.0004444453036269555 
0 
-0.0009552803792644772 
0 
-0.001513201090116739 
0 
-0.0009552803792644772 
0 
-0.0004444453036269555 
0 
-0.0004444453036269551 
0 
-0.0009552803792644772 
0 
-0.00151320109011674 
0 
-0.0009552803792644772 
0 
-0.0004444453036269551 
0 
-0.0004444453036269551 
0 
-0.0009552803792644772 
0 
-0.00151320109011674 
0 
-0.0009552803792644772 
0 
-0.0004444453036269551 
0 
-0.0004444453036269555 
0 
-0.0009552803792644772 
0 
-0.00151320109011674 
0 
-0.0009552803792644772 
0 
-0.0004444453036269555 
0 
-0.0004444453036269555 
0 
-0.0009552803792644772 
0 
-0.00151320109011674 
0 
-0.0009552803792644772 
0 
-0.0004444453036269555 
0 
-0.0004444453036269555 
0 
-0.0009552803792644772 
0 
-0.00151320109011674 
0 
-0.0009552803792644772 
0 
-0.0004444453036269555 
0 
-0.0004444453036269555 
0 
-0.0009552803792644772 
0 
-0.00151320109011674 
0 
-0.0009552803792644772 
0 
-0.0004444453036269555 
0 
-0.0004444453036269555 
0 
-0.0009552803792644772 
0 
-0.00151320109011674 
0 
-0.0009552803792644772 
0 
-0.0004444453036269555 
0 
-0.0004444453036269555 
0 
-0.0009552803792644772 
0 
-0.00151320109011674 
0 
-0.0009552803792644772 
0 
-0.0004444453036269555 
0 
-0.0004444453036269555 
0 
-0.0009552803792644772 
0 
-0.00151320109011674 
0 
-0.0009552803792644772 
0 
-0.0004444453036269555 
0 
0.001153127745984863 
0 
0.002478505907330738 
0 
0.003926049275419382 
0 
0.002478505907330738 
0 
0.001153127745984863 
0 
0.001153127745984863 
0 
0.002478505907330738 
0 
0.003926049275419382 
0 
0.002478505907330738 
0 
0.001153127745984863 
0 
0.001153127745984863 
0 
0.002478505907330738 
0 
0.003926049275419382 
0 
0.002478505907330738 
0 
0.001153127745984863 
0 
-0.0008106355447067892 
0 
-0.001742361150569716 
0 
-0.002759967491899256 
0 
-0.001742361150569716 
0 
-0.0008106355447067892 
0 
-0.0008106355447067892 
0 
-0.001742361150569716 
0 
-0.002759967491899256 
0 
-0.001742361150569716 
0 
-0.0008106355447067892 
0 
-0.0008106355447067892 
0 
-0.001742361150569716 
0 
-0.002759967491899256 
0 
-0.001742361150569716 
0 
-0.0008106355447067892 
0 
-0.001963763290691655 
0 
-0.004220867057900457 
0 
-0.006686016767318638 
0 
-0.004220867057900457 
0 
-0.001963763290691655 
0 
-0.001963763290691655 
0 
-0.004220867057900457 
0 
-0.006686016767318638 
0 
-0.004220867057900457 
0 
-0.001963763290691655 
0 
-0.001963763290691655 
0 
-0.004220867057900457 
0 
-0.006686016767318638 
0 
-0.004220867057900457 
0 
-0.001963763290691655 
0 
-0.003113666632760535 
0 
-0.006692442506588416 
0 
-0.01060108792803902 
0 
-0.006692442506588416 
0 
-0.003113666632760535 
0 
-0.003113666632760535 
0 
-0.006692442506588416 
0 
-0.01060108792803902 
0 
-0.006692442506588416 
0 
-0.003113666632760535 
0 
-0.001590037780556732 
0 
-0.003417590154873139 
0 
-0.005413595066097856 
0 
-0.003417590154873139 
0 
-0.001590037780556732 
0 
-6.182805459673786e-05 
0 
-0.0001328917798486429 
0 
-0.0002105057221936788 
0 
-0.0001328917798486429 
0 
-6.182805459673786e-05 
0 
-6.182805459673786e-05 
0 
-0.0001328917798486429 
0 
-0.0002105057221936788 
0 
-0.0001328917798486429 
0 
-6.182805459673786e-05 
0 
-6.182805459673786e-05 
0 
-0.0001328917798486429 
0 
-0.0002105057221936788 
0 
-0.0001328917798486429 
0 
-6.182805459673786e-05 
0 
-0.001267232811217488 
0 
-0.002723760675694568 
0 
-0.004314542319870077 
0 
-0.002723760675694568 
0 
-0.001267232811217488 
0 
0 
0 
0 
0 
0 
0 
0 
0 
0 
0 
0 
0 
0 
0 
0 
0 
0 
0 
0 
0 
-0.001267232811217488 
0 
-0.002723760675694568 
0 
-0.004314542319870077 
0 
-0.002723760675694568 
0 
-0.001267232811217488 
0 
0 
0 
0 
0 
0 
0 
0 
0 
0 
0 
0 
0 
0 
0 
0 
0 
0 
0 
0 
0 
0 
0 
0 
0 
0 
0 
0 
0 
0 
0 
0 
0 
0 
0 
0 
0 
0 
0 
0 
0 
0 
0 
0 
0 
0 
0 
0 
0 
0 
0 
0 
0 
0 
0 
0 
0 
0 
0 
0 
0 
0 
0 
0 
0 
0 
0 
0 
0 
0 
0 
0 
0 
0 
0 
0 
0 
0 
0 
0 
0 
-0.0007065218709113628 
0 
-0.001518581646144141 
0 
-0.00240549209661972 
0 
-0.001518581646144141 
0 
-0.0007065218709113628 
0 
-0.0007065218709113628 
0 
-0.001518581646144141 
0 
-0.00240549209661972 
0 
-0.001518581646144141 
0 
-0.0007065218709113628 
0 
-0.0007065218709113628 
0 
-0.001518581646144141 
0 
-0.00240549209661972 
0 
-0.001518581646144141 
0 
-0.0007065218709113628 
0 
2.032879073410321e-20 
0 
1.795709848179117e-19 
0 
0 
0 
1.795709848179117e-19 
0 
2.032879073410321e-20 
0 
2.032879073410321e-20 
0 
1.795709848179117e-19 
0 
0 
0 
1.795709848179117e-19 
0 
2.032879073410321e-20 
0 
2.032879073410321e-20 
0 
1.795709848179117e-19 
0 
0 
0 
1.795709848179117e-19 
0 
2.032879073410321e-20 
0 
-0.0008890445430940955 
0 
-0.00191089162463687 
0 
-0.003026926284952938 
0 
-0.00191089162463687 
0 
-0.0008890445430940955 
0 
-0.0008890445430940955 
0 
-0.00191089162463687 
0 
-0.003026926284952938 
0 
-0.00191089162463687 
0 
-0.0008890445430940955 
0 
-0.0008890445430940955 
0 
-0.00191089162463687 
0 
-0.003026926284952938 
0 
-0.00191089162463687 
0 
-0.0008890445430940955 
0 
4.743384504624082e-20 
0 
1.694065894508601e-20 
0 
-1.084202172485504e-19 
0 
1.694065894508601e-20 
0 
4.743384504624082e-20 
0 
4.743384504624082e-20 
0 
1.694065894508601e-20 
0 
-1.084202172485504e-19 
0 
1.694065894508601e-20 
0 
4.743384504624082e-20 
0 
4.743384504624082e-20 
0 
1.694065894508601e-20 
0 
-1.084202172485504e-19 
0 
1.694065894508601e-20 
0 
4.743384504624082e-20 
0 
-0.001267232811217488 
0 
-0.002723760675694568 
0 
-0.004314542319870077 
0 
-0.002723760675694568 
0 
-0.001267232811217488 
0 
0 
0 
0 
0 
0 
0 
0 
0 
0 
0 
0 
0 
0 
0 
0 
0 
0 
0 
0 
0 
-0.001267232811217488 
0 
-0.002723760675694568 
0 
-0.004314542319870078 
0 
-0.002723760675694568 
0 
-0.001267232811217488 
0 
6.776263578034403e-21 
0 
-8.470329472543003e-21 
0 
0 
0 
-8.470329472543003e-21 
0 
6.776263578034403e-21 
0 
6.776263578034403e-21 
0 
-8.470329472543003e-21 
0 
0 
0 
-8.470329472543003e-21 
0 
6.776263578034403e-21 
0 
-0.0007065218709113626 
0 
-0.001518581646144141 
0 
-0.00240549209661972 
0 
-0.001518581646144141 
0 
-0.0007065218709113626 
0 
-0.0007065218709113626 
0 
-0.001518581646144141 
0 
-0.00240549209661972 
0 
-0.001518581646144141 
0 
-0.0007065218709113626 
0 
-0.0007065218709113626 
0 
-0.001518581646144141 
0 
-0.00240549209661972 
0 
-0.001518581646144141 
0 
-0.0007065218709113626 
0 
2.710505431213761e-20 
0 
5.421010862427522e-20 
0 
0 
0 
5.421010862427522e-20 
0 
2.710505431213761e-20 
0 
0 
0 
0 
0 
0 
0 
0 
0 
0 
0 
0 
0 
0 
0 
0 
0 
0 
0 
0 
0 
-0.0007065218709113626 
0 
-0.001518581646144141 
0 
-0.00240549209661972 
0 
-0.001518581646144141 
0 
-0.0007065218709113626 
0 
-0.0007065218709113626 
0 
-0.001518581646144141 
0 
-0.00240549209661972 
0 
-0.001518581646144141 
0 
-0.0007065218709113626 
0 
-0.0007065218709113626 
0 
-0.001518581646144141 
0 
-0.00240549209661972 
0 
-0.001518581646144141 
0 
-0.0007065218709113626 
0 
0 
0 
3.388131789017201e-21 
0 
0 
0 
3.388131789017201e-21 
0 
0 
0 
0 
0 
3.388131789017201e-21 
0 
0 
0 
3.388131789017201e-21 
0 
0 
0 
0 
0 
3.388131789017201e-21 
0 
0 
0 
3.388131789017201e-21 
0 
0 
0 
-0.0006129608990354904 
0 
-0.001317483873328081 
0 
-0.002086945441992931 
0 
-0.001317483873328081 
0 
-0.0006129608990354904 
0 
-0.0006129608990354904 
0 
-0.001317483873328081 
0 
-0.002086945441992931 
0 
-0.001317483873328081 
0 
-0.0006129608990354904 
0 
-0.0006129608990354904 
0 
-0.001317483873328081 
0 
-0.002086945441992931 
0 
-0.001317483873328081 
0 
-0.0006129608990354904 
0 
2.032879073410321e-20 
0 
-3.726944967918921e-20 
0 
2.168404344971009e-19 
0 
-3.726944967918921e-20 
0 
2.032879073410321e-20 
0 
2.032879073410321e-20 
0 
-3.726944967918921e-20 
0 
2.168404344971009e-19 
0 
-3.726944967918921e-20 
0 
2.032879073410321e-20 
0 
2.032879073410321e-20 
0 
-3.726944967918921e-20 
0 
2.168404344971009e-19 
0 
-3.726944967918921e-20 
0 
2.032879073410321e-20 
0 
0 
0 
0 
0 
0 
0 
0 
0 
0 
0 
0 
0 
0 
0 
0 
0 
0 
0 
0 
0 
0 
0 
0 
0 
0 
0 
0 
0 
0 
0 
0 
0 
0 
0 
0 
0 
0 
0 
0 
0 
0 
0 
0 
0 
0 
0 
0 
0 
0 
0 
0 
0 
0 
0 
0 
0 
0 
0 
0 
0 
-0.0007065218709113626 
0 
-0.001518581646144141 
0 
-0.00240549209661972 
0 
-0.001518581646144141 
0 
-0.0007065218709113626 
0 
-0.0007065218709113626 
0 
-0.001518581646144141 
0 
-0.00240549209661972 
0 
-0.001518581646144141 
0 
-0.0007065218709113626 
0 
-0.0007065218709113626 
0 
-0.001518581646144141 
0 
-0.00240549209661972 
0 
-0.001518581646144141 
0 
-0.0007065218709113626 
0 
0 
0 
0 
0 
0 
0 
0 
0 
0 
0 
0 
0 
0 
0 
0 
0 
0 
0 
0 
0 
0 
0 
0 
0 
0 
0 
0 
0 
0 
0 
0 
0 
0 
0 
0 
0 
0 
0 
0 
0 
0 
0 
0 
0 
0 
0 
0 
0 
0 
0 
0 
0 
0 
0 
0 
0 
0 
0 
0 
0 
0 
0 
3.388131789017201e-21 
0 
0 
0 
3.388131789017201e-21 
0 
0 
0 
0 
0 
3.388131789017201e-21 
0 
0 
0 
3.388131789017201e-21 
0 
0 
0 
0 
0 
3.388131789017201e-21 
0 
0 
0 
3.388131789017201e-21 
0 
0 
0 
0.001185717153548456 
0 
0.002548552820557851 
0 
0.004037006296787481 
0 
0.002548552820557851 
0 
0.001185717153548456 
0 
-0.0003379116986553428 
0 
-0.0007262995311574319 
0 
-0.00115048656515369 
0 
-0.0007262995311574319 
0 
-0.0003379116986553428 
0 
-0.0003379116986553428 
0 
-0.0007262995311574319 
0 
-0.00115048656515369 
0 
-0.0007262995311574319 
0 
-0.0003379116986553428 
0 
-6.182805459673789e-05 
0 
-0.0001328917798486429 
0 
-0.0002105057221936789 
0 
-0.0001328917798486429 
0 
-6.182805459673789e-05 
0 
-6.182805459673789e-05 
0 
-0.0001328917798486429 
0 
-0.0002105057221936789 
0 
-0.0001328917798486429 
0 
-6.182805459673789e-05 
0 
-6.182805459673789e-05 
0 
-0.0001328917798486429 
0 
-0.0002105057221936789 
0 
-0.0001328917798486429 
0 
-6.182805459673789e-05 
0 
0 
0 
0 
0 
0 
0 
0 
0 
0 
0 
0 
0 
0 
0 
0 
0 
0 
0 
0 
0 
0 
0 
0 
0 
0 
0 
0 
0 
0 
0 
0 
0 
0 
0 
0 
0 
0 
0 
0 
0 
0 
0 
0 
0 
0 
0 
0 
0 
0 
0 
0 
0 
0 
0 
0 
0 
0 
0 
0 
0 
0 
0 
0 
0 
0 
0 
0 
0 
0 
0 
0 
0 
0 
0 
0 
0 
0 
0 
0 
0 
0 
0 
0 
0 
0 
0 
0 
0 
0 
0 
0 
0 
0 
0 
0 
0 
0 
0 
0 
0 
0 
0 
0 
0 
0 
0 
0 
0 
0 
0 
0 
0 
0 
0 
0 
0 
0 
0 
0 
0 
-0.0007959414669984051 
0 
-0.00171077804234097 
0 
-0.002709938626198271 
0 
-0.00171077804234097 
0 
-0.0007959414669984051 
0 
-0.0007959414669984051 
0 
-0.00171077804234097 
0 
-0.002709938626198271 
0 
-0.00171077804234097 
0 
-0.0007959414669984051 
0 
-0.0007959414669984051 
0 
-0.00171077804234097 
0 
-0.002709938626198271 
0 
-0.00171077804234097 
0 
-0.0007959414669984051 
0 
2.032879073410321e-20 
0 
1.795709848179117e-19 
0 
0 
0 
1.795709848179117e-19 
0 
2.032879073410321e-20 
0 
2.032879073410321e-20 
0 
1.795709848179117e-19 
0 
0 
0 
1.795709848179117e-19 
0 
2.032879073410321e-20 
0 
2.032879073410321e-20 
0 
1.795709848179117e-19 
0 
0 
0 
1.795709848179117e-19 
0 
2.032879073410321e-20 
0 
-6.18280545967379e-05 
0 
-0.0001328917798486428 
0 
-0.0002105057221936787 
0 
-0.0001328917798486428 
0 
-6.18280545967379e-05 
0 
-6.18280545967379e-05 
0 
-0.0001328917798486428 
0 
-0.0002105057221936787 
0 
-0.0001328917798486428 
0 
-6.18280545967379e-05 
0 
-6.18280545967379e-05 
0 
-0.0001328917798486428 
0 
-0.0002105057221936787 
0 
-0.0001328917798486428 
0 
-6.18280545967379e-05 
0 
-0.0006129608990354904 
0 
-0.001317483873328082 
0 
-0.002086945441992932 
0 
-0.001317483873328082 
0 
-0.0006129608990354904 
0 
-0.0006129608990354904 
0 
-0.001317483873328082 
0 
-0.002086945441992932 
0 
-0.001317483873328082 
0 
-0.0006129608990354904 
0 
-0.0008738196980102766 
0 
-0.001878167697379173 
0 
-0.002975090317760378 
0 
-0.001878167697379173 
0 
-0.0008738196980102766 
0 
-0.0005511328444387512 
0 
-0.001184592093479439 
0 
-0.001876439719799253 
0 
-0.001184592093479439 
0 
-0.0005511328444387512 
0 
-0.0005511328444387512 
0 
-0.001184592093479439 
0 
-0.001876439719799253 
0 
-0.001184592093479439 
0 
-0.0005511328444387512 
0 
-0.0005511328444387512 
0 
-0.001184592093479439 
0 
-0.001876439719799253 
0 
-0.001184592093479439 
0 
-0.0005511328444387512 
0 
-0.0005511328444387512 
0 
-0.001184592093479439 
0 
-0.001876439719799253 
0 
-0.001184592093479439 
0 
-0.0005511328444387512 
0 
-0.0005511328444387512 
0 
-0.001184592093479439 
0 
-0.001876439719799253 
0 
-0.001184592093479439 
0 
-0.0005511328444387512 
0 
-0.0005511328444387512 
0 
-0.001184592093479439 
0 
-0.001876439719799253 
0 
-0.001184592093479439 
0 
-0.0005511328444387512 
0 
0 
0 
0 
0 
0 
0 
0 
0 
0 
0 
0 
0 
0 
0 
0 
0 
0 
0 
0 
0 
0 
0 
0 
0 
0 
0 
0 
0 
0 
0 
-8.941959608704235e-05 
0 
-0.000192196396196829 
0 
-0.0003044465295785491 
0 
-0.000192196396196829 
0 
-8.941959608704235e-05 
0 
0 
0 
0 
0 
0 
0 
0 
0 
0 
0 
-8.941959608704235e-05 
0 
-0.000192196396196829 
0 
-0.0003044465295785491 
0 
-0.000192196396196829 
0 
-8.941959608704235e-05 
0 
-8.94195960870424e-05 
0 
-0.000192196396196829 
0 
-0.000304446529578549 
0 
-0.000192196396196829 
0 
-8.94195960870424e-05 
0 
-8.94195960870424e-05 
0 
-0.000192196396196829 
0 
-0.000304446529578549 
0 
-0.000192196396196829 
0 
-8.94195960870424e-05 
0 
-8.94195960870424e-05 
0 
-0.000192196396196829 
0 
-0.000304446529578549 
0 
-0.000192196396196829 
0 
-8.94195960870424e-05 
0 
-0.001578638184999979 
0 
-0.003393088129813923 
0 
-0.005374782910175413 
0 
-0.003393088129813923 
0 
-0.001578638184999979 
0 
-0.0003114053737824922 
0 
-0.00066932745411936 
0 
-0.001060240590305342 
0 
-0.00066932745411936 
0 
-0.0003114053737824922 
0 
-0.0003114053737824922 
0 
-0.00066932745411936 
0 
-0.001060240590305342 
0 
-0.00066932745411936 
0 
-0.0003114053737824922 
0 
-8.941959608704235e-05 
0 
-0.0001921963961968289 
0 
-0.0003044465295785492 
0 
-0.0001921963961968289 
0 
-8.941959608704235e-05 
0 
0.001434209256116759 
0 
0.003082655955518452 
0 
0.004883046332362619 
0 
0.003082655955518452 
0 
0.001434209256116759 
0 
-8.941959608704235e-05 
0 
-0.0001921963961968289 
0 
-0.0003044465295785492 
0 
-0.0001921963961968289 
0 
-8.941959608704235e-05 
0 
-0.001057406202662443 
0 
-0.002272764252592561 
0 
-0.003600146532109671 
0 
-0.002272764252592561 
0 
-0.001057406202662443 
0 
-0.001318265001637229 
0 
-0.002833448076643656 
0 
-0.00448829140787712 
0 
-0.002833448076643656 
0 
-0.001318265001637229 
0 
-0.001057406202662443 
0 
-0.002272764252592561 
0 
-0.003600146532109671 
0 
-0.002272764252592561 
0 
-0.001057406202662443 
0 
-0.0009955781480657053 
0 
-0.002139872472743919 
0 
-0.003389640809915989 
0 
-0.002139872472743919 
0 
-0.0009955781480657053 
0 
-0.0009955781480657053 
0 
-0.002139872472743919 
0 
-0.003389640809915989 
0 
-0.002139872472743919 
0 
-0.0009955781480657053 
0 
-0.0009955781480657053 
0 
-0.002139872472743919 
0 
-0.003389640809915989 
0 
-0.002139872472743919 
0 
-0.0009955781480657053 
0 
-0.002262810959283197 
0 
-0.004863633148438489 
0 
-0.00770418312978607 
0 
-0.004863633148438489 
0 
-0.002262810959283197 
0 
-0.0009955781480657053 
0 
-0.00213987247274392 
0 
-0.003389640809915989 
0 
-0.00213987247274392 
0 
-0.0009955781480657053 
0 
-0.0009955781480657053 
0 
-0.00213987247274392 
0 
-0.003389640809915989 
0 
-0.00213987247274392 
0 
-0.0009955781480657053 
0 
-0.001084997744152747 
0 
-0.002332068868940748 
0 
-0.003694087339494541 
0 
-0.002332068868940748 
0 
-0.001084997744152747 
0 
-0.0005338648997139973 
0 
-0.001147476775461306 
0 
-0.00181764761969529 
0 
-0.001147476775461306 
0 
-0.0005338648997139973 
0 
-0.0005338648997139973 
0 
-0.001147476775461306 
0 
-0.00181764761969529 
0 
-0.001147476775461306 
0 
-0.0005338648997139973 
0 
-8.941959608704235e-05 
0 
-0.000192196396196829 
0 
-0.0003044465295785491 
0 
-0.000192196396196829 
0 
-8.941959608704235e-05 
0 
-8.941959608704235e-05 
0 
-0.000192196396196829 
0 
-0.0003044465295785491 
0 
-0.000192196396196829 
0 
-8.941959608704235e-05 
0 
-8.941959608704235e-05 
0 
-0.000192196396196829 
0 
-0.0003044465295785491 
0 
-0.000192196396196829 
0 
-8.941959608704235e-05 
0 
-8.941959608704235e-05 
0 
-0.000192196396196829 
0 
-0.0003044465295785491 
0 
-0.000192196396196829 
0 
-8.941959608704235e-05 
0 
-8.941959608704235e-05 
0 
-0.000192196396196829 
0 
-0.0003044465295785491 
0 
-0.000192196396196829 
0 
-8.941959608704235e-05 
0 
-8.941959608704235e-05 
0 
-0.000192196396196829 
0 
-0.0003044465295785491 
0 
-0.000192196396196829 
0 
-8.941959608704235e-05 
0 
-0.00135665240730453 
0 
-0.002915957071891397 
0 
-0.004618988849448627 
0 
-0.002915957071891397 
0 
-0.00135665240730453 
0 
-8.941959608704232e-05 
0 
-0.0001921963961968288 
0 
-0.0003044465295785489 
0 
-0.0001921963961968288 
0 
-8.941959608704232e-05 
0 
-8.941959608704227e-05 
0 
-0.0001921963961968288 
0 
-0.0003044465295785491 
0 
-0.0001921963961968288 
0 
-8.941959608704227e-05 
0 
-0.003133855573303391 
0 
-0.006735836144953689 
0 
-0.01066982513054392 
0 
-0.006735836144953689 
0 
-0.003133855573303391 
0 
-0.001866622762085899 
0 
-0.00401207546925912 
0 
-0.006355282810673841 
0 
-0.00401207546925912 
0 
-0.001866622762085899 
0 
-0.001866622762085899 
0 
-0.00401207546925912 
0 
-0.006355282810673841 
0 
-0.00401207546925912 
0 
-0.001866622762085899 
0 
-0.002464059313660771 
-0.0001250306764301185 
-0.002779197847230168 
-0.003938901096502814 
0.00542527163703414 
0 
-0.002779197847230168 
0.003938901096502814 
-0.002464059313660771 
0.0001250306764301185 
0 
0 
0 
0 
0 
0 
0 
0 
0 
0 
0 
0 
0 
0 
0 
0 
0 
0 
0 
0 
0 
0 
0 
0 
0 
0 
0 
0 
0 
0 
0 
0 
0 
0 
0 
0 
0 
0 
0 
0 
-0.0009005054837021529 
0.00210013249781442 
-0.002706491608754799 
-0.002775556631158489 
0.004210331622292603 
0 
-0.002706491608754799 
0.002775556631158489 
-0.0009005054837021529 
-0.00210013249781442 
0 
0 
0 
0 
0 
0 
0 
0 
0 
0 
0 
0 
0 
0 
0 
0 
0 
0 
0 
0 
0 
0 
0 
0 
0 
0 
0 
0 
0 
0 
0 
0 
0 
0 
0 
0 
0 
0 
0 
0 
0.01215287066332048 
0.004079273915223005 
0.01583538988846961 
0.007376183102234197 
0.01787519538076751 
0 
0.01583538988846961 
-0.007376183102234197 
0.01215287066332048 
-0.004079273915223005 
0 
0 
0 
0 
0 
0 
0 
0 
0 
0 
0 
0 
0 
0 
0 
0 
0 
0 
0 
0 
0 
0 
0 
0 
0 
0 
0 
0 
0 
0 
0 
0 
0 
0 
0 
0 
0 
0 
0 
0 
0 
0 
0 
0 
0 
0 
0 
0 
0 
0 
-0.008424618027154674 
-0.003606340243918221 
-0.01377080454189917 
-0.004039082880866677 
-0.0199264818296636 
0 
-0.01377080454189917 
0.004039082880866677 
-0.008424618027154674 
0.003606340243918221 
0 
0 
0 
0 
0 
0 
0 
0 
0 
0 
0 
0 
0 
0 
0 
0 
0 
0 
0 
0 
0 
0 
0 
0 
0 
0 
0 
0 
0 
0 
0 
0 
0 
0 
0 
0 
0 
0 
0 
0 
0.001206848568517613 
0.0006748731804941203 
-0.003327439271029192 
0.00373420276783119 
-0.006565689502235404 
0 
-0.003327439271029192 
-0.00373420276783119 
0.001206848568517613 
-0.0006748731804941203 
0 
0 
0 
0 
0 
0 
0 
0 
0 
0 
0 
0 
0 
0 
0 
0 
0 
0 
0 
0 
0 
0 
0 
0 
0 
0 
0 
0 
0 
0 
0 
0 
0 
0 
0 
0 
0 
0 
0 
0 
-0.001294505626497771 
0.004101661989705428 
-0.006779542386843837 
0.0006602541505395761 
-0.002928527366469791 
0 
-0.006779542386843837 
-0.0006602541505395761 
-0.001294505626497771 
-0.004101661989705428 
0 
0 
0 
0 
0 
0 
0 
0 
0 
0 
0 
0 
0 
0 
0 
0 
0 
0 
0 
0 
0 
0 
0 
0 
0 
0 
0 
0 
0 
0 
0 
0 
0 
0 
0 
0 
0 
0 
0 
0 
0.002897470278716329 
-0.004527109046896478 
0.008781584469421818 
-0.006603328639913923 
0.02099311298161509 
0 
0.008781584469421818 
0.006603328639913923 
0.002897470278716329 
0.004527109046896478 
0.001466047655484516 
0.002351637456059385 
-0.003670470107161655 
0.004014603235895144 
-0.006897460965072255 
0 
-0.003670470107161655 
-0.004014603235895144 
0.001466047655484516 
-0.002351637456059385 
0 
0 
0 
0 
0 
0 
0 
0 
0 
0 
0 
0 
0 
0 
0 
0 
0 
0 
0 
0 
0 
0 
0 
0 
0 
0 
0 
0 
0 
0 
0 
0 
0 
0 
0 
0 
0 
0 
0 
0 
0.001153567525521981 
0.001857670975752666 
-0.002174195551455687 
0.001302192421031164 
-0.000911442349878112 
0 
-0.002174195551455687 
-0.001302192421031164 
0.001153567525521981 
-0.001857670975752666 
0 
0 
0 
0 
0 
0 
0 
0 
0 
0 
0 
0 
0 
0 
0 
0 
0 
0 
0 
0 
0 
0 
0 
0 
0 
0 
0 
0 
0 
0 
0 
0 
0 
0 
0 
0 
0 
0 
0 
0 
0.004115796374651593 
0.001294247567864949 
0.004090714408728981 
0.003065032277683382 
0.003128055813244894 
0 
0.004090714408728981 
-0.003065032277683382 
0.004115796374651593 
-0.001294247567864949 
0 
0 
0 
0 
0 
0 
0 
0 
0 
0 
0 
0 
0 
0 
0 
0 
0 
0 
0 
0 
0 
0 
0 
0 
0 
0 
0 
0 
0 
0 
0 
0 
0 
0 
0 
0 
0 
0 
0 
0 
0 
0 
0 
0 
0 
0 
0 
0 
0 
0 
-0.006643750080400578 
0.001304720156978955 
-0.01198771151678391 
-0.001523687653443321 
-0.01323833401506299 
0 
-0.01198771151678391 
0.001523687653443321 
-0.006643750080400578 
-0.001304720156978955 
0 
0 
0 
0 
0 
0 
0 
0 
0 
0 
0 
0 
0 
0 
0 
0 
0 
0 
0 
0 
0 
0 
0 
0 
0 
0 
0 
0 
0 
0 
0 
0 
0 
0 
0 
0 
0 
0 
0 
0 
-0.001586532956443341 
0.004029560441767513 
-0.008347480927125972 
0.003253506739234776 
-0.01138419448045187 
0 
-0.008347480927125972 
-0.003253506739234776 
-0.001586532956443341 
-0.004029560441767513 
0 
0 
0 
0 
0 
0 
0 
0 
0 
0 
0 
0 
0 
0 
0 
0 
0 
0 
0 
0 
0 
0 
0 
0 
0 
0 
0 
0 
0 
0 
0 
0 
0 
0 
0 
0 
0 
0 
0 
0 
-0.0007875063007908031 
-7.121375062639018e-05 
-0.000694703921450955 
-0.002040440590649264 
0.003550301740547903 
0 
-0.000694703921450955 
0.002040440590649264 
-0.0007875063007908031 
7.121375062639018e-05 
0 
0 
0 
0 
0 
0 
0 
0 
0 
0 
0 
0 
0 
0 
0 
0 
0 
0 
0 
0 
0 
0 
0 
0 
0 
0 
0 
0 
0 
0 
0 
0 
0 
0 
0 
0 
0 
0 
0 
0 
0.00255423570643129 
0.001041964695230689 
-0.003578891803585292 
0.003022564527297721 
-0.0007737169689801449 
0 
-0.003578891803585292 
-0.003022564527297721 
0.00255423570643129 
-0.001041964695230689 
0.000319693427875257 
0.0003243878197295674 
-0.0004788284268540154 
0.001118863690005716 
-0.001822696983926567 
0 
-0.0004788284268540154 
-0.001118863690005716 
0.000319693427875257 
-0.0003243878197295674 
0 
0 
0 
0 
0 
0 
0 
0 
0 
0 
0 
0 
0 
0 
0 
0 
0 
0 
0 
0 
0 
0 
0 
0 
0 
0 
0 
0 
0 
0 
0 
0 
0 
0 
0 
0 
0 
0 
0 
0 
-0.003364518487292303 
0.003554665990065731 
-0.008763235848554702 
0.001734508793484752 
-0.009160951070436404 
0 
-0.008763235848554702 
-0.001734508793484752 
-0.003364518487292303 
-0.003554665990065731 
0 
0 
0 
0 
0 
0 
0 
0 
0 
0 
0 
0 
0 
0 
0 
0 
0 
0 
0 
0 
0 
0 
0 
0 
0 
0 
0 
0 
0 
0 
0 
0 
0 
0 
0 
0 
0 
0 
0 
0 
0.003524184225931847 
0.002532906701437914 
0.002495319400240855 
0.004318329451327297 
0.0004736204664758018 
0 
0.002495319400240855 
-0.004318329451327297 
0.003524184225931847 
-0.002532906701437914 
0 
0 
0 
0 
0 
0 
0 
0 
0 
0 
0 
0 
0 
0 
0 
0 
0 
0 
0 
0 
0 
0 
0 
0 
0 
0 
0 
0 
0 
0 
0 
0 
0 
0 
0 
0 
0 
0 
0 
0 
0 
0 
0 
0 
0 
0 
0 
0 
0 
0 
-0.003356350842328576 
0.004508937076588889 
-0.01120716589332237 
0.003881678928078195 
-0.01516699606500832 
0 
-0.01120716589332237 
-0.003881678928078195 
-0.003356350842328576 
-0.004508937076588889 
0 
0 
0 
0 
0 
0 
0 
0 
0 
0 
0 
0 
0 
0 
0 
0 
0 
0 
0 
0 
0 
0 
0 
0 
0 
0 
0 
0 
0 
0 
0 
0 
0 
0 
0 
0 
0 
0 
0 
0 
-0.00543045353570108 
0.00763880222669072 
-0.01679034047053587 
0.005958875242655222 
-0.02380934598187281 
0 
-0.01679034047053587 
-0.005958875242655222 
-0.00543045353570108 
-0.00763880222669072 
0 
0 
0 
0 
0 
0 
0 
0 
0 
0 
0 
0 
0 
0 
0 
0 
0 
0 
0 
0 
0 
0 
0 
0 
0 
0 
0 
0 
0 
0 
0 
0 
0 
0 
0 
0 
0 
0 
0 
0 
-0.0002947950892877013 
0.001491274349058679 
-0.002587747595410683 
0.0005287820738890299 
-0.00152707826438161 
0 
-0.002587747595410683 
-0.0005287820738890299 
-0.0002947950892877013 
-0.001491274349058679 
0 
0 
0 
0 
0 
0 
0 
0 
0 
0 
0 
0 
0 
0 
0 
0 
0 
0 
0 
0 
0 
0 
0 
0 
0 
0 
0 
0 
0 
0 
0 
0 
0 
0 
0 
0 
0 
0 
0 
0 
0.0004074765276141646 
0.001640815630852764 
-0.003040816832741098 
-0.001906070774231664 
0.004988120486937755 
0 
-0.003040816832741098 
0.001906070774231664 
0.0004074765276141646 
-0.001640815630852764 
0.001476558252135125 
-0.000346579249574054 
-0.0003616058909094703 
0.003065202855138665 
-0.004203465176465813 
0 
-0.0003616058909094703 
-0.003065202855138665 
0.001476558252135125 
0.000346579249574054 
0 
0 
0 
0 
0 
0 
0 
0 
0 
0 
0 
0 
0 
0 
0 
0 
0 
0 
0 
0 
0 
0 
0 
0 
0 
0 
0 
0 
0 
0 
0 
0 
0 
0 
0 
0 
0 
0 
0 
0 
1.477965126094167e-05 
0.001546957032844216 
-0.001946475081975035 
-1.92922353272746e-05 
0.000890329463299352 
0 
-0.001946475081975035 
1.92922353272746e-05 
1.477965126094167e-05 
-0.001546957032844216 
0 
0 
0 
0 
0 
0 
0 
0 
0 
0 
0 
0 
0 
0 
0 
0 
0 
0 
0 
0 
0 
0 
0 
0 
0 
0 
0 
0 
0 
0 
0 
0 
0 
0 
0 
0 
0 
0 
0 
0 
0.001437910046165683 
0.002104564982410193 
-0.0006091108183150901 
0.003287218435587649 
-0.003342597629411044 
0 
-0.0006091108183150901 
-0.003287218435587649 
0.001437910046165683 
-0.002104564982410193 
0 
0 
0 
0 
0 
0 
0 
0 
0 
0 
0 
0 
0 
0 
0 
0 
0 
0 
0 
0 
0 
0 
0 
0 
0 
0 
0 
0 
0 
0 
0 
0 
0 
0 
0 
0 
0 
0 
0 
0 
0 
0 
0 
0 
0 
0 
0 
0 
0 
0 
-0.001326769962589405 
0.001272296818383101 
-0.003156736442517323 
-0.001322825417633448 
-0.0001000676436716478 
0 
-0.003156736442517323 
0.001322825417633448 
-0.001326769962589405 
-0.001272296818383101 
0 
0 
0 
0 
0 
0 
0 
0 
0 
0 
0 
0 
0 
0 
0 
0 
0 
0 
0 
0 
0 
0 
0 
0 
0 
0 
0 
0 
0 
0 
0 
0 
0 
0 
0 
0 
0 
0 
0 
0 
-0.004827995197316438 
0.006951079048301965 
-0.01531394106056516 
0.005275582640486364 
-0.02072015384773921 
0 
-0.01531394106056516 
-0.005275582640486364 
-0.004827995197316438 
-0.006951079048301965 
0 
0 
0 
0 
0 
0 
0 
0 
0 
0 
0 
0 
0 
0 
0 
0 
0 
0 
0 
0 
0 
0 
0 
0 
0 
0 
0 
0 
0 
0 
0 
0 
0 
0 
0 
0 
0 
0 
0 
0 
6.958917881424533e-05 
-0.002844876277668386 
0.003671486645993983 
-0.003759899586838603 
0.008745222748860174 
0 
0.003671486645993983 
0.003759899586838603 
6.958917881424533e-05 
0.002844876277668386 
0 
0 
0 
0 
0 
0 
0 
0 
0 
0 
0 
0 
0 
0 
0 
0 
0 
0 
0 
0 
0 
0 
0 
0 
0 
0 
0 
0 
0 
0 
0 
0 
0 
0 
0 
0 
0 
0 
0 
0 
0.0002825808321125532 
0.0007662850816921605 
-0.001825958895385271 
3.492593818010686e-05 
0.001263860333298697 
0 
-0.001825958895385271 
-3.492593818010686e-05 
0.0002825808321125532 
-0.0007662850816921605 
0.001240962490089818 
-0.0001405916374984765 
0.0001387901927531959 
0.004563017840502282 
-0.008318109410554341 
0 
0.0001387901927531959 
-0.004563017840502282 
0.001240962490089818 
0.0001405916374984765 
0 
0 
0 
0 
0 
0 
0 
0 
0 
0 
0 
0 
0 
0 
0 
0 
0 
0 
0 
0 
0 
0 
0 
0 
0 
0 
0 
0 
0 
0 
0 
0 
0 
0 
0 
0 
0 
0 
0 
0 
-0.0006151488454230572 
0.002191645992541329 
-0.004062608192729508 
0.001356976708444112 
-0.004019441965985623 
0 
-0.004062608192729508 
-0.001356976708444112 
-0.0006151488454230572 
-0.002191645992541329 
0 
0 
0 
0 
0 
0 
0 
0 
0 
0 
0 
0 
0 
0 
0 
0 
0 
0 
0 
0 
0 
0 
0 
0 
0 
0 
0 
0 
0 
0 
0 
0 
0 
0 
0 
0 
0 
0 
0 
0 
-0.0006956385990781708 
0.002252642345143569 
-0.003468924323283491 
0.002721931573558832 
-0.006610587851449781 
0 
-0.003468924323283491 
-0.002721931573558832 
-0.0006956385990781708 
-0.002252642345143569 
0 
0 
0 
0 
0 
0 
0 
0 
0 
0 
0 
0 
0 
0 
0 
0 
0 
0 
0 
0 
0 
0 
0 
0 
0 
0 
0 
0 
0 
0 
0 
0 
0 
0 
0 
0 
0 
0 
0 
0 
0 
0 
0 
0 
0 
0 
0 
0 
0 
0 
0.0004958943516306962 
0.0006880667436389007 
-0.003101899511464205 
0.001510373884483862 
-0.004685085402795731 
0 
-0.003101899511464205 
-0.001510373884483862 
0.0004958943516306962 
-0.0006880667436389007 
0 
0 
0 
0 
0 
0 
0 
0 
0 
0 
0 
0 
0 
0 
0 
0 
0 
0 
0 
0 
0 
0 
0 
0 
0 
0 
0 
0 
0 
0 
0 
0 
0 
0 
0 
0 
0 
0 
0 
0 
-0.0005413999934140347 
0.006308261643688338 
-0.01004379584281874 
0.008105646889641348 
-0.01810429375424287 
0 
-0.01004379584281874 
-0.008105646889641348 
-0.0005413999934140347 
-0.006308261643688338 
0 
0 
0 
0 
0 
0 
0 
0 
0 
0 
0 
0 
0 
0 
0 
0 
0 
0 
0 
0 
0 
0 
0 
0 
0 
0 
0 
0 
0 
0 
0 
0 
0 
0 
0 
0 
0 
0 
0 
0 
-0.001993511596887187 
0.002650840837897366 
-0.006143831880820202 
0.002223296907918229 
-0.008445175948238327 
0 
-0.006143831880820202 
-0.002223296907918229 
-0.001993511596887187 
-0.002650840837897366 
0 
0 
0 
0 
0 
0 
0 
0 
0 
0 
0 
0 
0 
0 
0 
0 
0 
0 
0 
0 
0 
0 
0 
0 
0 
0 
0 
0 
0 
0 
0 
0 
0 
0 
0 
0 
0 
0 
0 
0 
0.001162583549638671 
0.003019873015817504 
-0.004854422190903808 
0.001392671858372799 
-0.001399904938592714 
0 
-0.004854422190903808 
-0.001392671858372799 
0.001162583549638671 
-0.003019873015817504 
0.001050288701518772 
7.414415666418062e-05 
-0.001031996248961046 
0.000842178729606576 
0.0004449007362844841 
0 
-0.001031996248961046 
-0.000842178729606576 
0.001050288701518772 
-7.414415666418062e-05 
0 
0 
0 
0 
0 
0 
0 
0 
0 
0 
0 
0 
0 
0 
0 
0 
0 
0 
0 
0 
0 
0 
0 
0 
0 
0 
0 
0 
0 
0 
0 
0 
0 
0 
0 
0 
0 
0 
0 
0 
-0.002448490485078158 
0.002949605000055114 
-0.005066593626998974 
-0.000490688891389331 
-0.002298785927677363 
0 
-0.005066593626998974 
0.000490688891389331 
-0.002448490485078158 
-0.002949605000055114 
0 
0 
0 
0 
0 
0 
0 
0 
0 
0 
0 
0 
0 
0 
0 
0 
0 
0 
0 
0 
0 
0 
0 
0 
0 
0 
0 
0 
0 
0 
0 
0 
0 
0 
0 
0 
0 
0 
0 
0 
0.001257558512929453 
0.002614444235577476 
-0.0005824022570884256 
0.003676975432110309 
-0.003069549991264938 
0 
-0.0005824022570884256 
-0.003676975432110309 
0.001257558512929453 
-0.002614444235577476 
0 
0 
0 
0 
0 
0 
0 
0 
0 
0 
0 
0 
0 
0 
0 
0 
0 
0 
0 
0 
0 
0 
0 
0 
0 
0 
0 
0 
0 
0 
0 
0 
0 
0 
0 
0 
0 
0 
0 
0 
0 
0 
0 
0 
0 
0 
0 
0 
0 
0 
-0.003137499828088488 
0.003753947364508579 
-0.008243594508684289 
0.001138430432622691 
-0.00898359235079692 
0 
-0.008243594508684289 
-0.001138430432622691 
-0.003137499828088488 
-0.003753947364508579 
0 
0 
0 
0 
0 
0 
0 
0 
0 
0 
0 
0 
0 
0 
0 
0 
0 
0 
0 
0 
0 
0 
0 
0 
0 
0 
0 
0 
0 
0 
0 
0 
0 
0 
0 
0 
0 
0 
0 
0 
-0.004876704808395111 
0.005740259944072713 
-0.01152098731733899 
0.001713197679316861 
-0.01264807538288349 
0 
-0.01152098731733899 
-0.001713197679316861 
-0.004876704808395111 
-0.005740259944072713 
0 
0 
0 
0 
0 
0 
0 
0 
0 
0 
0 
0 
0 
0 
0 
0 
0 
0 
0 
0 
0 
0 
0 
0 
0 
0 
0 
0 
0 
0 
0 
0 
0 
0 
0 
0 
0 
0 
0 
0 
-0.002986794683009409 
-0.002506024928710179 
0.002518373133709372 
-0.006161320704518965 
0.009384561755550049 
0 
0.002518373133709372 
0.006161320704518965 
-0.002986794683009409 
0.002506024928710179 
0 
0 
0 
0 
0 
0 
0 
0 
0 
0 
0 
0 
0 
0 
0 
0 
0 
0 
0 
0 
0 
0 
0 
0 
0 
0 
0 
0 
0 
0 
0 
0 
0 
0 
0 
0 
0 
0 
0 
0 
0.002397068418851402 
0.002495699275710056 
-0.003946505435125634 
0.002293675982682362 
-0.00214685021910653 
0 
-0.003946505435125634 
-0.002293675982682362 
0.002397068418851402 
-0.002495699275710056 
0.0006159115011938469 
0.003012467257302101 
-0.003749254447983496 
0.002420655316956022 
-0.004433268504049947 
0 
-0.003749254447983496 
-0.002420655316956022 
0.0006159115011938469 
-0.003012467257302101 
0 
0 
0 
0 
0 
0 
0 
0 
0 
0 
0 
0 
0 
0 
0 
0 
0 
0 
0 
0 
0 
0 
0 
0 
0 
0 
0 
0 
0 
0 
0 
0 
0 
0 
0 
0 
0 
0 
0 
0 
-0.00292424417179088 
0.002594958413330864 
-0.00567138231714842 
-0.002233383917877074 
-0.0005307492267375063 
0 
-0.00567138231714842 
0.002233383917877074 
-0.00292424417179088 
-0.002594958413330864 
0 
0 
0 
0 
0 
0 
0 
0 
0 
0 
0 
0 
0 
0 
0 
0 
0 
0 
0 
0 
0 
0 
0 
0 
0 
0 
0 
0 
0 
0 
0 
0 
0 
0 
0 
0 
0 
0 
0 
0 
0.001355143838367808 
0.00195337735447669 
0.0001770305689056694 
0.002626035555260019 
-0.00161212249637183 
0 
0.0001770305689056694 
-0.002626035555260019 
0.001355143838367808 
-0.00195337735447669 
0 
0 
0 
0 
0 
0 
0 
0 
0 
0 
0 
0 
0 
0 
0 
0 
0 
0 
0 
0 
0 
0 
0 
0 
0 
0 
0 
0 
0 
0 
0 
0 
0 
0 
0 
0 
0 
0 
0 
0 
0 
0 
0 
0 
0 
0 
0 
0 
0 
0 
-0.00528073053547734 
-0.001659645333726202 
-0.003253714200552555 
-0.004471428133127372 
-0.001707774086751522 
0 
-0.003253714200552555 
0.004471428133127372 
-0.00528073053547734 
0.001659645333726202 
0 
0 
0 
0 
0 
0 
0 
0 
0 
0 
0 
0 
0 
0 
0 
0 
0 
0 
0 
0 
0 
0 
0 
0 
0 
0 
0 
0 
0 
0 
0 
0 
0 
0 
0 
0 
0 
0 
0 
0 
-0.001636502572367966 
0.0006074070691205468 
-0.003723907388275484 
-0.0001570419953785872 
-0.003549151685971207 
0 
-0.003723907388275484 
0.0001570419953785872 
-0.001636502572367966 
-0.0006074070691205468 
0 
0 
0 
0 
0 
0 
0 
0 
0 
0 
0 
0 
0 
0 
0 
0 
0 
0 
0 
0 
0 
0 
0 
0 
0 
0 
0 
0 
0 
0 
0 
0 
0 
0 
0 
0 
0 
0 
0 
0 
-0.001680292977061783 
-0.0004265930378649281 
-0.0011228987221604 
-0.002805921994547435 
0.003785676548784758 
0 
-0.0011228987221604 
0.002805921994547435 
-0.001680292977061783 
0.0004265930378649281 
0 
0 
0 
0 
0 
0 
0 
0 
0 
0 
0 
0 
0 
0 
0 
0 
0 
0 
0 
0 
0 
0 
0 
0 
0 
0 
0 
0 
0 
0 
0 
0 
0 
0 
0 
0 
0 
0 
0 
0 
0.0007162104877718127 
0.004695072743515036 
-0.007119533528456517 
0.0009841750166107847 
-0.002133235092636332 
0 
-0.007119533528456517 
-0.0009841750166107847 
0.0007162104877718127 
-0.004695072743515036 
-0.005061193064170036 
0.003571712450975208 
-0.01141503909797777 
0.0028770433386675 
-0.01719855692850111 
0 
-0.01141503909797777 
-0.0028770433386675 
-0.005061193064170036 
-0.003571712450975208 
0 
0 
0 
0 
0 
0 
0 
0 
0 
0 
0 
0 
0 
0 
0 
0 
0 
0 
0 
0 
0 
0 
0 
0 
0 
0 
0 
0 
0 
0 
0 
0 
0 
0 
0 
0 
0 
0 
0 
0 
-0.004324385976604243 
0.008006340619453888 
-0.01319454922872499 
0.005040538640405124 
-0.0178460812958749 
0 
-0.01319454922872499 
-0.005040538640405124 
-0.004324385976604243 
-0.008006340619453888 
0 
0 
0 
0 
0 
0 
0 
0 
0 
0 
0 
0 
0 
0 
0 
0 
0 
0 
0 
0 
0 
0 
0 
0 
0 
0 
0 
0 
0 
0 
0 
0 
0 
0 
0 
0 
0 
0 
0 
0 
0.01149252559006679 
0.002710763029234755 
0.01521912104539395 
0.006269470295306162 
0.01713897596153431 
0 
0.01521912104539395 
-0.006269470295306162 
0.01149252559006679 
-0.002710763029234755 
0 
0 
0 
0 
0 
0 
0 
0 
0 
0 
0 
0 
0 
0 
0 
0 
0 
0 
0 
0 
0 
0 
0 
0 
0 
0 
0 
0 
0 
0 
0 
0 
0 
0 
0 
0 
0 
0 
0 
0 
0 
0 
0 
0 
0 
0 
0 
0 
0 
0 
0.0008966841695833132 
-0.006153543736589515 
0.008940980784629543 
-0.008306066968451667 
0.0174792281684117 
0 
0.008940980784629543 
0.008306066968451667 
0.0008966841695833132 
0.006153543736589515 
0 
0 
0 
0 
0 
0 
0 
0 
0 
0 
0 
0 
0 
0 
0 
0 
0 
0 
0 
0 
0 
0 
0 
0 
0 
0 
0 
0 
0 
0 
0 
0 
0 
0 
0 
0 
0 
0 
0 
0 
-0.001192075352390813 
0.002059044981984964 
-0.00300074464189918 
-0.0003293996127091488 
-0.001191248410917742 
0 
-0.00300074464189918 
0.0003293996127091488 
-0.001192075352390813 
-0.002059044981984964 
0 
0 
0 
0 
0 
0 
0 
0 
0 
0 
0 
0 
0 
0 
0 
0 
0 
0 
0 
0 
0 
0 
0 
0 
0 
0 
0 
0 
0 
0 
0 
0 
0 
0 
0 
0 
0 
0 
0 
0 
-0.001996611765742788 
0.001327910136771095 
-0.00600458557021122 
0.0007463999611357227 
-0.006441513286892835 
0 
-0.00600458557021122 
-0.0007463999611357227 
-0.001996611765742788 
-0.001327910136771095 
0 
0 
0 
0 
0 
0 
0 
0 
0 
0 
0 
0 
0 
0 
0 
0 
0 
0 
0 
0 
0 
0 
0 
0 
0 
0 
0 
0 
0 
0 
0 
0 
0 
0 
0 
0 
0 
0 
0 
0 
-0.002342106049131254 
-0.004723291765767679 
-0.0003167761006019778 
-0.004514563781598608 
0.0002148648394699675 
0 
-0.0003167761006019778 
0.004514563781598608 
-0.002342106049131254 
0.004723291765767679 
-0.002703947401306909 
-0.002909835944988746 
0.001190430319076737 
-0.005307726923969192 
0.005859383504441689 
0 
0.001190430319076737 
0.005307726923969192 
-0.002703947401306909 
0.002909835944988746 
0 
0 
0 
0 
0 
0 
0 
0 
0 
0 
0 
0 
0 
0 
0 
0 
0 
0 
0 
0 
0 
0 
0 
0 
0 
0 
0 
0 
0 
0 
0 
0 
0 
0 
0 
0 
0 
0 
0 
0 
-0.003530469352641499 
0.00276175308324508 
-0.006062604913545059 
-0.0002697785405244399 
-0.005699107110529379 
0 
-0.006062604913545059 
0.0002697785405244399 
-0.003530469352641499 
-0.00276175308324508 
0 
0 
0 
0 
0 
0 
0 
0 
0 
0 
0 
0 
0 
0 
0 
0 
0 
0 
0 
0 
0 
0 
0 
0 
0 
0 
0 
0 
0 
0 
0 
0 
0 
0 
0 
0 
0 
0 
0 
0 
0.005736857695733926 
0.001501812665671964 
0.0004243822625694371 
0.00670795196154966 
-0.004867793031609725 
0 
0.0004243822625694371 
-0.00670795196154966 
0.005736857695733926 
-0.001501812665671964 
0 
0 
0 
0 
0 
0 
0 
0 
0 
0 
0 
0 
0 
0 
0 
0 
0 
0 
0 
0 
0 
0 
0 
0 
0 
0 
0 
0 
0 
0 
0 
0 
0 
0 
0 
0 
0 
0 
0 
0 
0 
0 
0 
0 
0 
0 
0 
0 
0 
0 
-0.004345477822406525 
-0.002014284026994695 
-0.007571898431799381 
-0.002367831465766277 
-0.0110496483614345 
0 
-0.007571898431799381 
0.002367831465766277 
-0.004345477822406525 
0.002014284026994695 
0 
0 
0 
0 
0 
0 
0 
0 
0 
0 
0 
0 
0 
0 
0 
0 
0 
0 
0 
0 
0 
0 
0 
0 
0 
0 
0 
0 
0 
0 
0 
0 
0 
0 
0 
0 
0 
0 
0 
0 
-0.0008894813427890012 
0.00535962833041517 
-0.01008648111360697 
0.00529167441281884 
-0.013741148623756 
0 
-0.01008648111360697 
-0.00529167441281884 
-0.0008894813427890012 
-0.00535962833041517 
0 
0 
0 
0 
0 
0 
0 
0 
0 
0 
0 
0 
0 
0 
0 
0 
0 
0 
0 
0 
0 
0 
0 
0 
0 
0 
0 
0 
0 
0 
0 
0 
0 
0 
0 
0 
0 
0 
0 
0 
-0.0002756029925709085 
0.002559498834843577 
-0.003089197694837853 
0.0001594823828451453 
-0.0008887070462713172 
0 
-0.003089197694837853 
-0.0001594823828451453 
-0.0002756029925709085 
-0.002559498834843577 
0 
0 
0 
0 
0 
0 
0 
0 
0 
0 
0 
0 
0 
0 
0 
0 
0 
0 
0 
0 
0 
0 
0 
0 
0 
0 
0 
0 
0 
0 
0 
0 
0 
0 
0 
0 
0 
0 
0 
0 
0.004154614934238195 
-0.004663916631179922 
0.01058224495464676 
-0.005101679381542545 
0.01943514808325459 
0 
0.01058224495464676 
0.005101679381542545 
0.004154614934238195 
0.004663916631179922 
-0.0005000050520383121 
0.001733292018774508 
-0.002290862805866322 
0.002168400191316742 
-0.006145403765317438 
0 
-0.002290862805866322 
-0.002168400191316742 
-0.0005000050520383121 
-0.001733292018774508 
0 
0 
0 
0 
0 
0 
0 
0 
0 
0 
0 
0 
0 
0 
0 
0 
0 
0 
0 
0 
0 
0 
0 
0 
0 
0 
0 
0 
0 
0 
0 
0 
0 
0 
0 
0 
0 
0 
0 
0 
0.002409494863236654 
-0.002977461364410564 
0.00778970654815838 
-0.004367239739043479 
0.01459723308153742 
0 
0.00778970654815838 
0.004367239739043479 
0.002409494863236654 
0.002977461364410564 
0 
0 
0 
0 
0 
0 
0 
0 
0 
0 
0 
0 
0 
0 
0 
0 
0 
0 
0 
0 
0 
0 
0 
0 
0 
0 
0 
0 
0 
0 
0 
0 
0 
0 
0 
0 
0 
0 
0 
0 
0.003045603340125415 
0.00481199563626901 
-0.001435253740312186 
0.005921640653370278 
-0.004203887399293458 
0 
-0.001435253740312186 
-0.005921640653370278 
0.003045603340125415 
-0.00481199563626901 
0 
0 
0 
0 
0 
0 
0 
0 
0 
0 
0 
0 
0 
0 
0 
0 
0 
0 
0 
0 
0 
0 
0 
0 
0 
0 
0 
0 
0 
0 
0 
0 
0 
0 
0 
0 
0 
0 
0 
0 
0 
0 
0 
0 
0 
0 
0 
0 
0 
0 
0.001073567698170052 
-0.0006387260730445295 
0.0003573705044287859 
0.001349065085701934 
-0.002952687672220946 
0 
0.0003573705044287859 
-0.001349065085701934 
0.001073567698170052 
0.0006387260730445295 
0 
0 
0 
0 
0 
0 
0 
0 
0 
0 
0 
0 
0 
0 
0 
0 
0 
0 
0 
0 
0 
0 
0 
0 
0 
0 
0 
0 
0 
0 
0 
0 
0 
0 
0 
0 
0 
0 
0 
0 
0.0007713623322877935 
0.002853659425035202 
-0.004299882792397675 
0.005807579785484347 
-0.01079037097635796 
0 
-0.004299882792397675 
-0.005807579785484347 
0.0007713623322877935 
-0.002853659425035202 
0 
0 
0 
0 
0 
0 
0 
0 
0 
0 
0 
0 
0 
0 
0 
0 
0 
0 
0 
0 
0 
0 
0 
0 
0 
0 
0 
0 
0 
0 
0 
0 
0 
0 
0 
0 
0 
0 
0 
0 
-0.000723670174257074 
0.001372490158405256 
-0.0009204731491877254 
-0.0007681437309422051 
0.001231165331455112 
0 
-0.0009204731491877254 
0.0007681437309422051 
-0.000723670174257074 
-0.001372490158405256 
0 
0 
0 
0 
0 
0 
0 
0 
0 
0 
0 
0 
0 
0 
0 
0 
0 
0 
0 
0 
0 
0 
0 
0 
0 
0 
0 
0 
0 
0 
0 
0 
0 
0 
0 
0 
0 
0 
0 
0 
0.000511568787023266 
0.0004662306691619931 
-0.0003071512396672785 
-0.00204141815446171 
0.004291215630656781 
0 
-0.0003071512396672785 
0.00204141815446171 
0.000511568787023266 
-0.0004662306691619931 
0.001981903888409339 
-2.115309789035725e-05 
-0.0003098048465486664 
0.003222706830309757 
-0.004534488324953458 
0 
-0.0003098048465486664 
-0.003222706830309757 
0.001981903888409339 
2.115309789035725e-05 
0 
0 
0 
0 
0 
0 
0 
0 
0 
0 
0 
0 
0 
0 
0 
0 
0 
0 
0 
0 
0 
0 
0 
0 
0 
0 
0 
0 
0 
0 
0 
0 
0 
0 
0 
0 
0 
0 
0 
0 
7.281017056015088e-05 
-0.002163587317664886 
0.006534989923199042 
-0.004715187703675355 
0.01211941790911867 
0 
0.006534989923199042 
0.004715187703675355 
7.281017056015088e-05 
0.002163587317664886 
0 
0 
0 
0 
0 
0 
0 
0 
0 
0 
0 
0 
0 
0 
0 
0 
0 
0 
0 
0 
0 
0 
0 
0 
0 
0 
0 
0 
0 
0 
0 
0 
0 
0 
0 
0 
0 
0 
0 
0 
0.007136828746935984 
0.0007907440568965699 
0.009891625572840219 
0.003789804480054495 
0.01020202293158487 
0 
0.009891625572840219 
-0.003789804480054495 
0.007136828746935984 
-0.0007907440568965699 
0 
0 
0 
0 
0 
0 
0 
0 
0 
0 
0 
0 
0 
0 
0 
0 
0 
0 
0 
0 
0 
0 
0 
0 
0 
0 
0 
0 
0 
0 
0 
0 
0 
0 
0 
0 
0 
0 
0 
0 
0 
0 
0 
0 
0 
0 
0 
0 
0 
0 
0.005323860752586757 
0.003386270037662592 
0.004476592933458023 
0.005004981915184044 
0.003917741838718508 
0 
0.004476592933458023 
-0.005004981915184044 
0.005323860752586757 
-0.003386270037662592 
0 
0 
0 
0 
0 
0 
0 
0 
0 
0 
0 
0 
0 
0 
0 
0 
0 
0 
0 
0 
0 
0 
0 
0 
0 
0 
0 
0 
0 
0 
0 
0 
0 
0 
0 
0 
0 
0 
0 
0 
-0.007379803040794897 
-0.001134453654381355 
-0.01421284568126172 
-0.00164424551648047 
-0.02084702099398293 
0 
-0.01421284568126172 
0.00164424551648047 
-0.007379803040794897 
0.001134453654381355 
0 
0 
0 
0 
0 
0 
0 
0 
0 
0 
0 
0 
0 
0 
0 
0 
0 
0 
0 
0 
0 
0 
0 
0 
0 
0 
0 
0 
0 
0 
0 
0 
0 
0 
0 
0 
0 
0 
0 
0 
0.001027763496925732 
-0.001513200742891493 
0.000403945452445283 
0.001133189653647689 
-0.002377373560807794 
0 
0.000403945452445283 
-0.001133189653647689 
0.001027763496925732 
0.001513200742891493 
0 
0 
0 
0 
0 
0 
0 
0 
0 
0 
0 
0 
0 
0 
0 
0 
0 
0 
0 
0 
0 
0 
0 
0 
0 
0 
0 
0 
0 
0 
0 
0 
0 
0 
0 
0 
0 
0 
0 
0 
-0.002889157889424387 
0.002281652588567544 
-0.002886692653216662 
-0.003077932178944465 
0.001690175219819029 
0 
-0.002886692653216662 
0.003077932178944465 
-0.002889157889424387 
-0.002281652588567544 
0.001235072434151415 
0.00185747819072999 
-0.003062055294230732 
0.00508171908935849 
-0.009070010823125521 
0 
-0.003062055294230732 
-0.00508171908935849 
0.001235072434151415 
-0.00185747819072999 
0 
0 
0 
0 
0 
0 
0 
0 
0 
0 
0 
0 
0 
0 
0 
0 
0 
0 
0 
0 
0 
0 
0 
0 
0 
0 
0 
0 
0 
0 
0 
0 
0 
0 
0 
0 
0 
0 
0 
0 
-0.001866272973759877 
0.001395674831518746 
-0.003513791003254146 
-0.0002830449290181846 
-0.002910592968068525 
0 
-0.003513791003254146 
0.0002830449290181846 
-0.001866272973759877 
-0.001395674831518746 
0 
0 
0 
0 
0 
0 
0 
0 
0 
0 
0 
0 
0 
0 
0 
0 
0 
0 
0 
0 
0 
0 
0 
0 
0 
0 
0 
0 
0 
0 
0 
0 
0 
0 
0 
0 
0 
0 
0 
0 
0.001146197760951444 
-0.003090953676697872 
0.003538256683180455 
-0.001118981555392794 
0.002725172367275849 
0 
0.003538256683180455 
0.001118981555392794 
0.001146197760951444 
0.003090953676697872 
0 
0 
0 
0 
0 
0 
0 
0 
0 
0 
0 
0 
0 
0 
0 
0 
0 
0 
0 
0 
0 
0 
0 
0 
0 
0 
0 
0 
0 
0 
0 
0 
0 
0 
0 
0 
0 
0 
0 
0 
0 
0 
0 
0 
0 
0 
0 
0 
0 
0 
-0.004316986063090525 
-0.00210816150633726 
-0.003536437202715154 
-0.002807516538379119 
-0.004822998640946372 
0 
-0.003536437202715154 
0.002807516538379119 
-0.004316986063090525 
0.00210816150633726 
0 
0 
0 
0 
0 
0 
0 
0 
0 
0 
0 
0 
0 
0 
0 
0 
0 
0 
0 
0 
0 
0 
0 
0 
0 
0 
0 
0 
0 
0 
0 
0 
0 
0 
0 
0 
0 
0 
0 
0 
-0.005231665254966626 
0.002434578704466321 
-0.01211771968163916 
0.0009752579954928829 
-0.01663924361442256 
0 
-0.01211771968163916 
-0.0009752579954928829 
-0.005231665254966626 
-0.002434578704466321 
0 
0 
0 
0 
0 
0 
0 
0 
0 
0 
0 
0 
0 
0 
0 
0 
0 
0 
0 
0 
0 
0 
0 
0 
0 
0 
0 
0 
0 
0 
0 
0 
0 
0 
0 
0 
0 
0 
0 
0 
0.003758098096471476 
-0.005807221038114408 
0.01284537210343688 
-0.003820211631982698 
0.01675503059018067 
0 
0.01284537210343688 
0.003820211631982698 
0.003758098096471476 
0.005807221038114408 
0 
0 
0 
0 
0 
0 
0 
0 
0 
0 
0 
0 
0 
0 
0 
0 
0 
0 
0 
0 
0 
0 
0 
0 
0 
0 
0 
0 
0 
0 
0 
0 
0 
0 
0 
0 
0 
0 
0 
0 
-0.002132836782437179 
0.0002691480029643505 
-0.0008608804923914939 
-0.003582814028909316 
0.004628007708703589 
0 
-0.0008608804923914939 
0.003582814028909316 
-0.002132836782437179 
-0.0002691480029643505 
0.002229169198760506 
0.003309040925429433 
-0.004953933765539597 
0.005466043133269858 
-0.008603934608987488 
0 
-0.004953933765539597 
-0.005466043133269858 
0.002229169198760506 
-0.003309040925429433 
0 
0 
0 
0 
0 
0 
0 
0 
0 
0 
0 
0 
0 
0 
0 
0 
0 
0 
0 
0 
0 
0 
0 
0 
0 
0 
0 
0 
0 
0 
0 
0 
0 
0 
0 
0 
0 
0 
0 
0 
-0.005685626622594911 
0.005387077485109663 
-0.01239577479571757 
0.001592918328921985 
-0.01437424223379186 
0 
-0.01239577479571757 
-0.001592918328921985 
-0.005685626622594911 
-0.005387077485109663 
0 
0 
0 
0 
0 
0 
0 
0 
0 
0 
0 
0 
0 
0 
0 
0 
0 
0 
0 
0 
0 
0 
0 
0 
0 
0 
0 
0 
0 
0 
0 
0 
0 
0 
0 
0 
0 
0 
0 
0 
-0.001544559929427779 
0.001930448049234109 
-0.005684384055456124 
0.002421943178693458 
-0.009594422292612538 
0 
-0.005684384055456124 
-0.002421943178693458 
-0.001544559929427779 
-0.001930448049234109 
0 
0 
0 
0 
0 
0 
0 
0 
0 
0 
0 
0 
0 
0 
0 
0 
0 
0 
0 
0 
0 
0 
0 
0 
0 
0 
0 
0 
0 
0 
0 
0 
0 
0 
0 
0 
0 
0 
0 
0 
0 
0 
0 
0 
0 
0 
0 
0 
0 
0 
-0.000854310936122215 
-0.002742509573067399 
-0.00197920727241152 
-0.001026135291270143 
-0.005080295989318312 
0 
-0.00197920727241152 
0.001026135291270143 
-0.000854310936122215 
0.002742509573067399 
0 
0 
0 
0 
0 
0 
0 
0 
0 
0 
0 
0 
0 
0 
0 
0 
0 
0 
0 
0 
0 
0 
0 
0 
0 
0 
0 
0 
0 
0 
0 
0 
0 
0 
0 
0 
0 
0 
0 
0 
-0.004171843159749171 
-6.337201468666123e-05 
-0.008885243826451162 
-0.0004223625057387759 
-0.01240057492934431 
0 
-0.008885243826451162 
0.0004223625057387759 
-0.004171843159749171 
6.337201468666123e-05 
0 
0 
0 
0 
0 
0 
0 
0 
0 
0 
0 
0 
0 
0 
0 
0 
0 
0 
0 
0 
0 
0 
0 
0 
0 
0 
0 
0 
0 
0 
0 
0 
0 
0 
0 
0 
0 
0 
0 
0 
0.00503777817651212 
-0.000446529377617137 
0.006752602369767729 
0.001427439833288637 
0.008512995834684973 
0 
0.006752602369767729 
-0.001427439833288637 
0.00503777817651212 
0.000446529377617137 
0 
0 
0 
0 
0 
0 
0 
0 
0 
0 
0 
0 
0 
0 
0 
0 
0 
0 
0 
0 
0 
0 
0 
0 
0 
0 
0 
0 
0 
0 
0 
0 
0 
0 
0 
0 
0 
0 
0 
0 
0.001787704018002212 
0.002587995092930595 
-0.003639887274873924 
0.00311807228393548 
-0.004246475383502651 
0 
-0.003639887274873924 
-0.00311807228393548 
0.001787704018002212 
-0.002587995092930595 
0.001426151136388151 
0.000807292461419533 
-0.001569168893795813 
0.004587785206336697 
-0.007934205687994496 
0 
-0.001569168893795813 
-0.004587785206336697 
0.001426151136388151 
-0.000807292461419533 
0 
0 
0 
0 
0 
0 
0 
0 
0 
0 
0 
0 
0 
0 
0 
0 
0 
0 
0 
0 
0 
0 
0 
0 
0 
0 
0 
0 
0 
0 
0 
0 
0 
0 
0 
0 
0 
0 
0 
0 
-0.001562928850336907 
0.004327414351416636 
-0.008000462472680665 
0.002886615370245251 
-0.009648946543581996 
0 
-0.008000462472680665 
-0.002886615370245251 
-0.001562928850336907 
-0.004327414351416636 
0 
0 
0 
0 
0 
0 
0 
0 
0 
0 
0 
0 
0 
0 
0 
0 
0 
0 
0 
0 
0 
0 
0 
0 
0 
0 
0 
0 
0 
0 
0 
0 
0 
0 
0 
0 
0 
0 
0 
0 
0.003924627571581409 
0.003482920278542424 
0.003576179457181241 
0.004415442285494368 
0.003439210381368977 
0 
0.003576179457181241 
-0.004415442285494368 
0.003924627571581409 
-0.003482920278542424 
0 
0 
0 
0 
0 
0 
0 
0 
0 
0 
0 
0 
0 
0 
0 
0 
0 
0 
0 
0 
0 
0 
0 
0 
0 
0 
0 
0 
0 
0 
0 
0 
0 
0 
0 
0 
0 
0 
0 
0 
0 
0 
0 
0 
0 
0 
0 
0 
0 
0 
0.0007325570934966111 
-0.0009258186368952774 
0.003633910184670269 
-0.001408367128581384 
0.005573570392685961 
0 
0.003633910184670269 
0.001408367128581384 
0.0007325570934966111 
0.0009258186368952774 
0 
0 
0 
0 
0 
0 
0 
0 
0 
0 
0 
0 
0 
0 
0 
0 
0 
0 
0 
0 
0 
0 
0 
0 
0 
0 
0 
0 
0 
0 
0 
0 
0 
0 
0 
0 
0 
0 
0 
0 
0.002147547561185497 
-0.0004794132944248009 
0.002179305701414289 
0.0007042765887287958 
0.00130495274851772 
0 
0.002179305701414289 
-0.0007042765887287958 
0.002147547561185497 
0.0004794132944248009 
0 
0 
0 
0 
0 
0 
0 
0 
0 
0 
0 
0 
0 
0 
0 
0 
0 
0 
0 
0 
0 
0 
0 
0 
0 
0 
0 
0 
0 
0 
0 
0 
0 
0 
0 
0 
0 
0 
0 
0 
0.002181526550107392 
0.0002927712422559229 
0.002553824232653927 
9.312608279359067e-05 
0.004508697688833154 
0 
0.002553824232653927 
-9.312608279359067e-05 
0.002181526550107392 
-0.0002927712422559229 
0 
0 
0 
0 
0 
0 
0 
0 
0 
0 
0 
0 
0 
0 
0 
0 
0 
0 
0 
0 
0 
0 
0 
0 
0 
0 
0 
0 
0 
0 
0 
0 
0 
0 
0 
0 
0 
0 
0 
0 
0.004202408701235368 
0.003614657873135076 
-0.003873298566646565 
0.006541262163382719 
-0.007105785903799898 
0 
-0.003873298566646565 
-0.006541262163382719 
0.004202408701235368 
-0.003614657873135076 
0.0008435491895579551 
0.003188055871737995 
-0.005603723595154273 
0.003897815786604254 
-0.008202291834323092 
0 
-0.005603723595154273 
-0.003897815786604254 
0.0008435491895579551 
-0.003188055871737995 
0 
0 
0 
0 
0 
0 
0 
0 
0 
0 
0 
0 
0 
0 
0 
0 
0 
0 
0 
0 
0 
0 
0 
0 
0 
0 
0 
0 
0 
0 
0 
0 
0 
0 
0 
0 
0 
0 
0 
0 
-0.002485460445561444 
0.002395650354423749 
-0.006384768883474594 
0.001019253069453925 
-0.007483470982273541 
0 
-0.006384768883474594 
-0.001019253069453925 
-0.002485460445561444 
-0.002395650354423749 
0 
0 
0 
0 
0 
0 
0 
0 
0 
0 
0 
0 
0 
0 
0 
0 
0 
0 
0 
0 
0 
0 
0 
0 
0 
0 
0 
0 
0 
0 
0 
0 
0 
0 
0 
0 
0 
0 
0 
0 
-0.001009860163158849 
0.0009739899845111564 
-0.003642621109758876 
0.0004547012273741746 
-0.004668724250958208 
0 
-0.003642621109758876 
-0.0004547012273741746 
-0.001009860163158849 
-0.0009739899845111564 
0 
0 
0 
0 
0 
0 
0 
0 
0 
0 
0 
0 
0 
0 
0 
0 
0 
0 
0 
0 
0 
0 
0 
0 
0 
0 
0 
0 
0 
0 
0 
0 
0 
0 
0 
0 
0 
0 
0 
0 
0 
0 
0 
0 
0 
0 
0 
0 
0 
0 
-0.009842304824236179 
-0.003266445912675724 
-0.005357310330731493 
-0.01075879939097256 
0.0016711838141645 
0 
-0.005357310330731493 
0.01075879939097256 
-0.009842304824236179 
0.003266445912675724 
0 
0 
0 
0 
0 
0 
0 
0 
0 
0 
0 
0 
0 
0 
0 
0 
0 
0 
0 
0 
0 
0 
0 
0 
0 
0 
0 
0 
0 
0 
0 
0 
0 
0 
0 
0 
0 
0 
0 
0 
-0.0001662195285511814 
0.001036256697661835 
-0.001418043801264126 
0.0005711279518232417 
-0.001632664176312402 
0 
-0.001418043801264126 
-0.0005711279518232417 
-0.0001662195285511814 
-0.001036256697661835 
0 
0 
0 
0 
0 
0 
0 
0 
0 
0 
0 
0 
0 
0 
0 
0 
0 
0 
0 
0 
0 
0 
0 
0 
0 
0 
0 
0 
0 
0 
0 
0 
0 
0 
0 
0 
0 
0 
0 
0 
-0.005768063154818088 
0.001673394635522013 
-0.005402895867433373 
-0.003635878022679844 
-0.001704484270714968 
0 
-0.005402895867433373 
0.003635878022679844 
-0.005768063154818088 
-0.001673394635522013 
0 
0 
0 
0 
0 
0 
0 
0 
0 
0 
0 
0 
0 
0 
0 
0 
0 
0 
0 
0 
0 
0 
0 
0 
0 
0 
0 
0 
0 
0 
0 
0 
0 
0 
0 
0 
0 
0 
0 
0 
-0.0005313628077859386 
0.003820403140121988 
-0.004719924317724519 
0.0001982548628141599 
-0.002320727127204006 
0 
-0.004719924317724519 
-0.0001982548628141599 
-0.0005313628077859386 
-0.003820403140121988 
-0.004672468764077676 
0.0008464281478723945 
-0.007522163397312893 
-0.001324234266566612 
-0.008364283866451966 
0 
-0.007522163397312893 
0.001324234266566612 
-0.004672468764077676 
-0.0008464281478723945 
0 
0 
0 
0 
0 
0 
0 
0 
0 
0 
0 
0 
0 
0 
0 
0 
0 
0 
0 
0 
0 
0 
0 
0 
0 
0 
0 
0 
0 
0 
0 
0 
0 
0 
0 
0 
0 
0 
0 
0 
0.0009189414977558858 
-0.0009193668734080142 
0.000343381275482677 
-3.116991197663487e-05 
0.001668351607847007 
0 
0.000343381275482677 
3.116991197663487e-05 
0.0009189414977558858 
0.0009193668734080142 
0 
0 
0 
0 
0 
0 
0 
0 
0 
0 
0 
0 
0 
0 
0 
0 
0 
0 
0 
0 
0 
0 
0 
0 
0 
0 
0 
0 
0 
0 
0 
0 
0 
0 
0 
0 
0 
0 
0 
0 
0.004212970713037117 
-0.001449578803082475 
0.006320516970971046 
0.000588339109871162 
0.007489540036807822 
0 
0.006320516970971046 
-0.000588339109871162 
0.004212970713037117 
0.001449578803082475 
0 
0 
0 
0 
0 
0 
0 
0 
0 
0 
0 
0 
0 
0 
0 
0 
0 
0 
0 
0 
0 
0 
0 
0 
0 
0 
0 
0 
0 
0 
0 
0 
0 
0 
0 
0 
0 
0 
0 
0 
0 
0 
0 
0 
0 
0 
0 
0 
0 
0 
0.007521981003858618 
-0.006342125913155344 
0.01793340641206801 
-0.006208198204877243 
0.02819305338913934 
0 
0.01793340641206801 
0.006208198204877243 
0.007521981003858618 
0.006342125913155344 
0 
0 
0 
0 
0 
0 
0 
0 
0 
0 
0 
0 
0 
0 
0 
0 
0 
0 
0 
0 
0 
0 
0 
0 
0 
0 
0 
0 
0 
0 
0 
0 
0 
0 
0 
0 
0 
0 
0 
0 
0.006855655452965425 
-0.003168230928058539 
0.01337188966332408 
-0.001273672891654681 
0.01818211861081003 
0 
0.01337188966332408 
0.001273672891654681 
0.006855655452965425 
0.003168230928058539 
0 
0 
0 
0 
0 
0 
0 
0 
0 
0 
0 
0 
0 
0 
0 
0 
0 
0 
0 
0 
0 
0 
0 
0 
0 
0 
0 
0 
0 
0 
0 
0 
0 
0 
0 
0 
0 
0 
0 
0 
-0.004080870006937273 
0.004158060120216305 
-0.008663232610561936 
-0.0002544212270407518 
-0.005547631138554152 
0 
-0.008663232610561936 
0.0002544212270407518 
-0.004080870006937273 
-0.004158060120216305 
0 
0 
0 
0 
0 
0 
0 
0 
0 
0 
0 
0 
0 
0 
0 
0 
0 
0 
0 
0 
0 
0 
0 
0 
0 
0 
0 
0 
0 
0 
0 
0 
0 
0 
0 
0 
0 
0 
0 
0 
0.003340215658605825 
0.001037500191126472 
0.00206780048030617 
0.002450632974659937 
0.0004953121747397082 
0 
0.00206780048030617 
-0.002450632974659937 
0.003340215658605825 
-0.001037500191126472 
-0.0006938060190231636 
-0.001853036440727053 
0.002070249689092668 
-0.002505862784731214 
0.004614685363576613 
0 
0.002070249689092668 
0.002505862784731214 
-0.0006938060190231636 
0.001853036440727053 
0 
0 
0 
0 
0 
0 
0 
0 
0 
0 
0 
0 
0 
0 
0 
0 
0 
0 
0 
0 
0 
0 
0 
0 
0 
0 
0 
0 
0 
0 
0 
0 
0 
0 
0 
0 
0 
0 
0 
0 
0.0003462087917585584 
0.003648045268786988 
-0.006689714730338296 
0.005379517077982259 
-0.01218967197830788 
0 
-0.006689714730338296 
-0.005379517077982259 
0.0003462087917585584 
-0.003648045268786988 
0 
0 
0 
0 
0 
0 
0 
0 
0 
0 
0 
0 
0 
0 
0 
0 
0 
0 
0 
0 
0 
0 
0 
0 
0 
0 
0 
0 
0 
0 
0 
0 
0 
0 
0 
0 
0 
0 
0 
0 
0.0005475405838926441 
0.002146894609420703 
-0.005062639445704992 
0.002656621543959574 
-0.006213668538397278 
0 
-0.005062639445704992 
-0.002656621543959574 
0.0005475405838926441 
-0.002146894609420703 
0 
0 
0 
0 
0 
0 
0 
0 
0 
0 
0 
0 
0 
0 
0 
0 
0 
0 
0 
0 
0 
0 
0 
0 
0 
0 
0 
0 
0 
0 
0 
0 
0 
0 
0 
0 
0 
0 
0 
0 
0 
0 
0 
0 
0 
0 
0 
0 
0 
0 
-0.007867546450107499 
-0.005069149143579207 
-0.01252625302393767 
-0.005863574937142902 
-0.017657187651909 
0 
-0.01252625302393767 
0.005863574937142902 
-0.007867546450107499 
0.005069149143579207 
0 
0 
0 
0 
0 
0 
0 
0 
0 
0 
0 
0 
0 
0 
0 
0 
0 
0 
0 
0 
0 
0 
0 
0 
0 
0 
0 
0 
0 
0 
0 
0 
0 
0 
0 
0 
0 
0 
0 
0 
0.001599764789707263 
0.002860542401750663 
-0.002655996088408321 
0.003835877226587133 
-0.004544243917098471 
0 
-0.002655996088408321 
-0.003835877226587133 
0.001599764789707263 
-0.002860542401750663 
0 
0 
0 
0 
0 
0 
0 
0 
0 
0 
0 
0 
0 
0 
0 
0 
0 
0 
0 
0 
0 
0 
0 
0 
0 
0 
0 
0 
0 
0 
0 
0 
0 
0 
0 
0 
0 
0 
0 
0 
-0.003468267766200046 
0.002461744529750875 
-0.008324402461078059 
0.001252150233228862 
-0.01012039318394986 
0 
-0.008324402461078059 
-0.001252150233228862 
-0.003468267766200046 
-0.002461744529750875 
0 
0 
0 
0 
0 
0 
0 
0 
0 
0 
0 
0 
0 
0 
0 
0 
0 
0 
0 
0 
0 
0 
0 
0 
0 
0 
0 
0 
0 
0 
0 
0 
0 
0 
0 
0 
0 
0 
0 
0 
0.004129997909514282 
-0.00276665411914332 
0.008535560077439931 
-0.00351077634917728 
0.01585399162057949 
0 
0.008535560077439931 
0.00351077634917728 
0.004129997909514282 
0.00276665411914332 
-0.002614050068365107 
-0.002084370187949761 
0.001797121770853349 
-0.007560590281540742 
0.01271722220516075 
0 
0.001797121770853349 
0.007560590281540742 
-0.002614050068365107 
0.002084370187949761 
0 
0 
0 
0 
0 
0 
0 
0 
0 
0 
0 
0 
0 
0 
0 
0 
0 
0 
0 
0 
0 
0 
0 
0 
0 
0 
0 
0 
0 
0 
0 
0 
0 
0 
0 
0 
0 
0 
0 
0 
0.01217952588144438 
-0.009530080187997622 
0.02465566182534209 
-0.002822567266097187 
0.02966763760153204 
0 
0.02465566182534209 
0.002822567266097187 
0.01217952588144438 
0.009530080187997622 
0 
0 
0 
0 
0 
0 
0 
0 
0 
0 
0 
0 
0 
0 
0 
0 
0 
0 
0 
0 
0 
0 
0 
0 
0 
0 
0 
0 
0 
0 
0 
0 
0 
0 
0 
0 
0 
0 
0 
0 
0.0007311288367356613 
-0.001445894005752872 
0.0006246249768278524 
-0.0003794382685237926 
0.0006582983678558726 
0 
0.0006246249768278524 
0.0003794382685237926 
0.0007311288367356613 
0.001445894005752872 
0 
0 
0 
0 
0 
0 
0 
0 
0 
0 
0 
0 
0 
0 
0 
0 
0 
0 
0 
0 
0 
0 
0 
0 
0 
0 
0 
0 
0 
0 
0 
0 
0 
0 
0 
0 
0 
0 
0 
0 
0 
0 
0 
0 
0 
0 
0 
0 
0 
0 
0.01077797369875315 
-0.002450352523214426 
0.01542219812671513 
0.003308354555272569 
0.0152579342071072 
0 
0.01542219812671513 
-0.003308354555272569 
0.01077797369875315 
0.002450352523214426 
0 
0 
0 
0 
0 
0 
0 
0 
0 
0 
0 
0 
0 
0 
0 
0 
0 
0 
0 
0 
0 
0 
0 
0 
0 
0 
0 
0 
0 
0 
0 
0 
0 
0 
0 
0 
0 
0 
0 
0 
-0.00176551518921156 
-0.0006743311511870234 
-0.0006110041925268525 
-0.001802026614530613 
6.333118634733368e-05 
0 
-0.0006110041925268525 
0.001802026614530613 
-0.00176551518921156 
0.0006743311511870234 
0 
0 
0 
0 
0 
0 
0 
0 
0 
0 
0 
0 
0 
0 
0 
0 
0 
0 
0 
0 
0 
0 
0 
0 
0 
0 
0 
0 
0 
0 
0 
0 
0 
0 
0 
0 
0 
0 
0 
0 
0.001177468230862341 
-0.002667508643383956 
0.004853522024148597 
-0.002268416621993615 
0.007286752961761405 
0 
0.004853522024148597 
0.002268416621993615 
0.001177468230862341 
0.002667508643383956 
0 
0 
0 
0 
0 
0 
0 
0 
0 
0 
0 
0 
0 
0 
0 
0 
0 
0 
0 
0 
0 
0 
0 
0 
0 
0 
0 
0 
0 
0 
0 
0 
0 
0 
0 
0 
0 
0 
0 
0 
-0.003646805986366162 
-0.001081757119590492 
0.001994469953524422 
-0.009032804701659056 
0.01531180251423956 
0 
0.001994469953524422 
0.009032804701659056 
-0.003646805986366162 
0.001081757119590492 
0.0007605461133945268 
0.002208474606419026 
-0.003387373055163808 
0.001764291918046255 
-0.002252717228723093 
0 
-0.003387373055163808 
-0.001764291918046255 
0.0007605461133945268 
-0.002208474606419026 
0 
0 
0 
0 
0 
0 
0 
0 
0 
0 
0 
0 
0 
0 
0 
0 
0 
0 
0 
0 
0 
0 
0 
0 
0 
0 
0 
0 
0 
0 
0 
0 
0 
0 
0 
0 
0 
0 
0 
0 
0.00743357755947885 
2.719713225141537e-05 
0.008723263289916995 
0.003496906348324761 
0.008827130332710091 
0 
0.008723263289916995 
-0.003496906348324761 
0.00743357755947885 
-2.719713225141537e-05 
0 
0 
0 
0 
0 
0 
0 
0 
0 
0 
0 
0 
0 
0 
0 
0 
0 
0 
0 
0 
0 
0 
0 
0 
0 
0 
0 
0 
0 
0 
0 
0 
0 
0 
0 
0 
0 
0 
0 
0 
-0.002341472551988022 
0.004027814733006212 
-0.00833158437193909 
0.003019532271262932 
-0.0111370342349267 
0 
-0.00833158437193909 
-0.003019532271262932 
-0.002341472551988022 
-0.004027814733006212 
0 
0 
0 
0 
0 
0 
0 
0 
0 
0 
0 
0 
0 
0 
0 
0 
0 
0 
0 
0 
0 
0 
0 
0 
0 
0 
0 
0 
0 
0 
0 
0 
0 
0 
0 
0 
0 
0 
0 
0 
0 
0 
0 
0 
0 
0 
0 
0 
0 
0 
0.003378351702109815 
-0.001881357715200263 
0.00405854700196062 
0.001434386604197225 
0.002075172450893914 
0 
0.00405854700196062 
-0.001434386604197225 
0.003378351702109815 
0.001881357715200263 
0 
0 
0 
0 
0 
0 
0 
0 
0 
0 
0 
0 
0 
0 
0 
0 
0 
0 
0 
0 
0 
0 
0 
0 
0 
0 
0 
0 
0 
0 
0 
0 
0 
0 
0 
0 
0 
0 
0 
0 
-0.003746496173320756 
-0.0003726716222406126 
-0.004840423405868845 
-0.001385073550411318 
-0.006103314733393706 
0 
-0.004840423405868845 
0.001385073550411318 
-0.003746496173320756 
0.0003726716222406126 
0 
0 
0 
0 
0 
0 
0 
0 
0 
0 
0 
0 
0 
0 
0 
0 
0 
0 
0 
0 
0 
0 
0 
0 
0 
0 
0 
0 
0 
0 
0 
0 
0 
0 
0 
0 
0 
0 
0 
0 
-0.00618821334856849 
0.007199547408124533 
-0.01421936644261336 
0.003095344679907255 
-0.01700936633766847 
0 
-0.01421936644261336 
-0.003095344679907255 
-0.00618821334856849 
-0.007199547408124533 
0 
0 
0 
0 
0 
0 
0 
0 
0 
0 
0 
0 
0 
0 
0 
0 
0 
0 
0 
0 
0 
0 
0 
0 
0 
0 
0 
0 
0 
0 
0 
0 
0 
0 
0 
0 
0 
0 
0 
0 
-0.0002911412885182396 
0.003864911227931095 
-0.006128923080866695 
-0.001035528557977033 
0.002356402149176579 
0 
-0.006128923080866695 
0.001035528557977033 
-0.0002911412885182396 
-0.003864911227931095 
0.001224375521112042 
0.00223366748362712 
-0.003994867305147297 
0.005047124324853966 
-0.009540662179145362 
0 
-0.003994867305147297 
-0.005047124324853966 
0.001224375521112042 
-0.00223366748362712 
0 
0 
0 
0 
0 
0 
0 
0 
0 
0 
0 
0 
0 
0 
0 
0 
0 
0 
0 
0 
0 
0 
0 
0 
0 
0 
0 
0 
0 
0 
0 
0 
0 
0 
0 
0 
0 
0 
0 
0 
-0.0002730033820195201 
0.003819188510273876 
-0.006176535352977359 
0.004578472095521965 
-0.01051075747169028 
0 
-0.006176535352977359 
-0.004578472095521965 
-0.0002730033820195201 
-0.003819188510273876 
0 
0 
0 
0 
0 
0 
0 
0 
0 
0 
0 
0 
0 
0 
0 
0 
0 
0 
0 
0 
0 
0 
0 
0 
0 
0 
0 
0 
0 
0 
0 
0 
0 
0 
0 
0 
0 
0 
0 
0 
-0.003092445150196219 
0.002756633989678487 
-0.005454753216899904 
0.002114837652469739 
-0.007950600364479542 
0 
-0.005454753216899904 
-0.002114837652469739 
-0.003092445150196219 
-0.002756633989678487 
0 
0 
0 
0 
0 
0 
0 
0 
0 
0 
0 
0 
0 
0 
0 
0 
0 
0 
0 
0 
0 
0 
0 
0 
0 
0 
0 
0 
0 
0 
0 
0 
0 
0 
0 
0 
0 
0 
0 
0 
0 
0 
0 
0 
0 
0 
0 
0 
0 
0 
-0.01128067383555741 
0.005534707581191273 
-0.02185005298740866 
0.0002604259910611171 
-0.02667355973285839 
0 
-0.02185005298740866 
-0.0002604259910611171 
-0.01128067383555741 
-0.005534707581191273 
0 
0 
0 
0 
0 
0 
0 
0 
0 
0 
0 
0 
0 
0 
0 
0 
0 
0 
0 
0 
0 
0 
0 
0 
0 
0 
0 
0 
0 
0 
0 
0 
0 
0 
0 
0 
0 
0 
0 
0 
-0.0004924874403053675 
0.003092729291362722 
-0.000715643417666329 
0.002340112412662437 
-0.0007010840140544038 
0 
-0.000715643417666329 
-0.002340112412662437 
-0.0004924874403053675 
-0.003092729291362722 
0 
0 
0 
0 
0 
0 
0 
0 
0 
0 
0 
0 
0 
0 
0 
0 
0 
0 
0 
0 
0 
0 
0 
0 
0 
0 
0 
0 
0 
0 
0 
0 
0 
0 
0 
0 
0 
0 
0 
0 
0.0007402806014937772 
-0.002205682872720416 
0.004117064066764495 
-0.001438227042408893 
0.005168671185689205 
0 
0.004117064066764495 
0.001438227042408893 
0.0007402806014937772 
0.002205682872720416 
0 
0 
0 
0 
0 
0 
0 
0 
0 
0 
0 
0 
0 
0 
0 
0 
0 
0 
0 
0 
0 
0 
0 
0 
0 
0 
0 
0 
0 
0 
0 
0 
0 
0 
0 
0 
0 
0 
0 
0 
0.0006427679558444411 
0.002666317446469787 
-0.005177062588673811 
0.003674670913746294 
-0.006714738767977319 
0 
-0.005177062588673811 
-0.003674670913746294 
0.0006427679558444411 
-0.002666317446469787 
0.001025840767407124 
0.001601631822259496 
-0.002901716921558334 
0.0001854798459541101 
0.001633556080780824 
0 
-0.002901716921558334 
-0.0001854798459541101 
0.001025840767407124 
-0.001601631822259496 
0 
0 
0 
0 
0 
0 
0 
0 
0 
0 
0 
0 
0 
0 
0 
0 
0 
0 
0 
0 
0 
0 
0 
0 
0 
0 
0 
0 
0 
0 
0 
0 
0 
0 
0 
0 
0 
0 
0 
0 
-0.002872170300542507 
0.009503410441260636 
-0.01180389128932637 
0.005226117713845625 
-0.01417767942214071 
0 
-0.01180389128932637 
-0.005226117713845625 
-0.002872170300542507 
-0.009503410441260636 
0 
0 
0 
0 
0 
0 
0 
0 
0 
0 
0 
0 
